{"learner":{"attributes":{"scikit_learn":"{\"_estimator_type\": \"classifier\"}"},"feature_names":["DATA_EMISSAO_DOCUMENTO","DATA_VENCIMENTO","VALOR_A_PAGAR","TAXA","RENDA_MES_ANTERIOR","NO_FUNCIONARIOS","DATA_CADASTRO","DDD","FLAG_PF","SEGMENTO_INDUSTRIAL","DOMINIO_EMAIL","PORTE","CEP_2_DIG"],"feature_types":["int","int","float","float","float","float","int","int","int","int","int","int","int"],"gradient_booster":{"model":{"gbtree_model_param":{"num_parallel_tree":"1","num_trees":"100"},"iteration_indptr":[0,1,2,3,4,5,6,7,8,9,10,11,12,13,14,15,16,17,18,19,20,21,22,23,24,25,26,27,28,29,30,31,32,33,34,35,36,37,38,39,40,41,42,43,44,45,46,47,48,49,50,51,52,53,54,55,56,57,58,59,60,61,62,63,64,65,66,67,68,69,70,71,72,73,74,75,76,77,78,79,80,81,82,83,84,85,86,87,88,89,90,91,92,93,94,95,96,97,98,99,100],"tree_info":[0,0,0,0,0,0,0,0,0,0,0,0,0,0,0,0,0,0,0,0,0,0,0,0,0,0,0,0,0,0,0,0,0,0,0,0,0,0,0,0,0,0,0,0,0,0,0,0,0,0,0,0,0,0,0,0,0,0,0,0,0,0,0,0,0,0,0,0,0,0,0,0,0,0,0,0,0,0,0,0,0,0,0,0,0,0,0,0,0,0,0,0,0,0,0,0,0,0,0,0],"trees":[{"base_weights":[-6.4177746E-1,1.751045E0,-8.231851E-1,4.0360694E0,1.3133188E0,6.09802E-1,-8.530895E-1,2.3281465E0,4.4405146E0,7.723791E-1,2.2805953E0,-3.8848236E-1,1.7557181E0,5.540938E-1,-8.7336165E-1,2.7428598E0,6.3754255E-1,4.5360155E0,1.7054344E0,1.3751999E0,6.6784424E-1,3.6683233E0,1.6830752E0,3.712326E-1,-8.7545806E-1,3.15639E0,3.6403888E-1,3.5313191E0,1.4221187E-1,-8.8211834E-1,1.2615769E0,1.0536454E0,1.4024085E0,-9.628486E-2,4.148323E-1,4.828868E0,3.1237519E0,1.1686308E-1,6.455344E-1,9.5884144E-1,-8.742459E-2,1.1492543E0,4.135311E0,1.8926294E0,9.214842E-2,1.7261988E0,-2.789702E-1,2.2852133E-1,-9.8485255E-1,1.7585924E-1,4.1269E0,1.0390903E0,-6.907104E-2,1.1686308E-1,3.920492E0,-5.4116035E-1,1.3124591E0,-9.00914E-1,-2.7498507E-1,-7.5448483E-1,2.9715369E0,5.8639413E-1,7.4913576E-2,1.4677409E0,4.1283682E-1,-3.1123793E-2,1.0453869E0,8.953576E-2,4.5329157E-1,7.450957E-1,-1.0363567E-1,1.0378074E-1,7.847063E-1,1.3777087E0,2.929494E-1,2.6912183E-1,6.8259233E-1,3.339845E-1,-2.9060823E-1,9.4087166E-1,1.7227353E-1,-2.0433627E-1,2.8119516E-1,8.88468E-2,-3.1276554E-1,-1.8389283E-1,6.455344E-1,-1.1989338E-1,1.4005063E0,-9.2572056E-2,5.2351254E-1,2.9047528E-1,1.339512E0,-2.2672795E-1,3.7629718E-1,8.915989E-2,8.079975E-1,-2.0824261E-2,-2.7346206E-1,-2.3802249E-1,4.6854016E-1,-3.103201E-1,1.1612857E-1,1.1255647E0,-1.3014364E-1],"categories":[],"categories_nodes":[],"categories_segments":[],"categories_sizes":[],"default_left":[0,0,0,0,0,0,0,0,1,0,0,0,0,0,0,0,0,0,0,0,0,0,0,0,0,0,0,0,0,0,0,0,0,0,0,0,0,0,0,0,0,0,0,0,0,0,0,0,0,0,0,0,0,0,0,0,0,0,0,0,0,0,0,0,0,0,0,0,0,0,0,0,0,0,0,0,0,0,0,0,0,0,0,0,0,0,0,0,0,0,0,0,0,0,0,0,0,0,0,0,0,0,0,0,0],"id":0,"left_children":[1,3,5,7,9,11,13,15,17,19,21,23,25,27,29,31,33,35,37,-1,39,41,43,45,47,49,51,53,55,57,59,-1,61,-1,-1,63,65,-1,-1,67,69,71,73,75,77,79,81,-1,83,85,87,-1,89,-1,91,93,95,97,99,101,103,-1,-1,-1,-1,-1,-1,-1,-1,-1,-1,-1,-1,-1,-1,-1,-1,-1,-1,-1,-1,-1,-1,-1,-1,-1,-1,-1,-1,-1,-1,-1,-1,-1,-1,-1,-1,-1,-1,-1,-1,-1,-1,-1,-1],"loss_changes":[2.2897722E3,3.6660095E2,2.1053687E2,3.0619751E1,1.6228821E2,1.15955E2,1.3744385E2,7.6847534E0,4.4987183E0,7.765972E1,8.664465E1,2.0551435E1,9.065434E1,8.3859505E1,8.960278E1,5.903816E0,3.2675803E0,3.3849487E0,1.0311928E0,0E0,4.367787E1,3.3883636E1,2.6528091E1,1.9914486E1,6.770441E0,6.679343E1,3.3470833E1,8.644203E0,4.9874134E1,5.3552734E1,7.031585E1,0E0,3.0091991E0,0E0,0E0,9.873047E-1,1.2592903E1,0E0,0E0,5.1787582E1,3.806458E1,6.7772408E0,3.496164E1,2.4902267E1,1.2315385E1,1.0042852E1,8.35011E0,0E0,2.6698818E0,1.1883763E1,4.491281E1,0E0,1.040116E1,0E0,7.399025E0,1.6175514E1,3.1383186E1,4.0338623E1,1.3741916E2,3.551025E0,3.0557785E1,0E0,0E0,0E0,0E0,0E0,0E0,0E0,0E0,0E0,0E0,0E0,0E0,0E0,0E0,0E0,0E0,0E0,0E0,0E0,0E0,0E0,0E0,0E0,0E0,0E0,0E0,0E0,0E0,0E0,0E0,0E0,0E0,0E0,0E0,0E0,0E0,0E0,0E0,0E0,0E0,0E0,0E0,0E0,0E0],"parents":[2147483647,0,0,1,1,2,2,3,3,4,4,5,5,6,6,7,7,8,8,9,9,10,10,11,11,12,12,13,13,14,14,15,15,16,16,17,17,18,18,20,20,21,21,22,22,23,23,24,24,25,25,26,26,27,27,28,28,29,29,30,30,32,32,35,35,36,36,39,39,40,40,41,41,42,42,43,43,44,44,45,45,46,46,48,48,49,49,50,50,52,52,54,54,55,55,56,56,57,57,58,58,59,59,60,60],"right_children":[2,4,6,8,10,12,14,16,18,20,22,24,26,28,30,32,34,36,38,-1,40,42,44,46,48,50,52,54,56,58,60,-1,62,-1,-1,64,66,-1,-1,68,70,72,74,76,78,80,82,-1,84,86,88,-1,90,-1,92,94,96,98,100,102,104,-1,-1,-1,-1,-1,-1,-1,-1,-1,-1,-1,-1,-1,-1,-1,-1,-1,-1,-1,-1,-1,-1,-1,-1,-1,-1,-1,-1,-1,-1,-1,-1,-1,-1,-1,-1,-1,-1,-1,-1,-1,-1,-1,-1],"split_conditions":[9.41E3,5.91E2,2.6865E4,1.8E1,6.1E1,1.46E2,0E0,4E2,7.31846E5,0E0,1.07473E5,4.8E1,2.49E2,1.5E1,5.35E2,1.22E2,1.27E2,8.3E1,7.94054E5,1.3751999E0,8.1E1,4.8E1,7.4879E3,1.8E1,9.4E1,6.3E1,0E0,4.09252E4,6.5E1,9.4E1,8.6E1,1.0536454E0,6.61E2,-9.628486E-2,4.148323E-1,5.01E2,4.3E1,1.1686308E-1,6.455344E-1,1.341E3,8.3E1,2E0,7.4879E3,6.3E1,4E0,1.76E2,8.01E2,2.2852133E-1,0E0,2.35E2,5.5E1,1.0390903E0,1.199E1,1.1686308E-1,2.48E2,4.63E2,1.99E2,1.141903E4,2.42E2,8.66062E5,3E0,5.8639413E-1,7.4913576E-2,1.4677409E0,4.1283682E-1,-3.1123793E-2,1.0453869E0,8.953576E-2,4.5329157E-1,7.450957E-1,-1.0363567E-1,1.0378074E-1,7.847063E-1,1.3777087E0,2.929494E-1,2.6912183E-1,6.8259233E-1,3.339845E-1,-2.9060823E-1,9.4087166E-1,1.7227353E-1,-2.0433627E-1,2.8119516E-1,8.88468E-2,-3.1276554E-1,-1.8389283E-1,6.455344E-1,-1.1989338E-1,1.4005063E0,-9.2572056E-2,5.2351254E-1,2.9047528E-1,1.339512E0,-2.2672795E-1,3.7629718E-1,8.915989E-2,8.079975E-1,-2.0824261E-2,-2.7346206E-1,-2.3802249E-1,4.6854016E-1,-3.103201E-1,1.1612857E-1,1.1255647E0,-1.3014364E-1],"split_indices":[2,2,4,7,7,6,11,2,4,11,4,6,6,12,6,5,5,12,4,0,12,12,2,7,0,12,11,2,7,7,12,0,0,0,0,6,7,0,0,2,5,11,2,7,10,1,1,0,10,6,7,0,3,0,0,6,6,2,6,4,10,0,0,0,0,0,0,0,0,0,0,0,0,0,0,0,0,0,0,0,0,0,0,0,0,0,0,0,0,0,0,0,0,0,0,0,0,0,0,0,0,0,0,0,0],"split_type":[0,0,0,0,0,0,0,0,0,0,0,0,0,0,0,0,0,0,0,0,0,0,0,0,0,0,0,0,0,0,0,0,0,0,0,0,0,0,0,0,0,0,0,0,0,0,0,0,0,0,0,0,0,0,0,0,0,0,0,0,0,0,0,0,0,0,0,0,0,0,0,0,0,0,0,0,0,0,0,0,0,0,0,0,0,0,0,0,0,0,0,0,0,0,0,0,0,0,0,0,0,0,0,0,0],"sum_hessian":[5.2707266E3,3.7082166E2,4.899905E3,5.8293983E1,3.1252765E2,9.9767456E1,4.800137E3,1.2454883E1,4.5839104E1,2.0158932E2,1.1093833E2,5.3671555E1,4.6095905E1,6.779565E1,4.732342E3,9.501662E0,2.9532194E0,4.365629E1,2.1828144E0,4.237228E0,1.973521E2,3.184341E1,7.9094925E1,2.105774E1,3.2613815E1,2.2341747E1,2.3754156E1,7.318848E0,6.04768E1,4.713595E3,1.8746523E1,5.007633E0,4.4940295E0,1.5408101E0,1.4124093E0,3.4154625E1,9.501662E0,1.0272068E0,1.1556076E0,1.4226814E2,5.5083965E1,5.5212364E0,2.6322174E1,6.972166E1,9.373261E0,6.2916417E0,1.4766097E1,1.669211E0,3.0944605E1,5.778038E0,1.656371E1,2.0544136E0,2.1699743E1,1.0272068E0,6.2916417E0,3.8520256E1,2.1956545E1,4.571584E3,1.4201134E2,8.859658E0,9.886866E0,2.568017E0,1.9260128E0,3.312742E1,1.0272068E0,1.0272068E0,8.474456E0,6.548443E1,7.678371E1,4.237228E0,5.0846737E1,4.3656287E0,1.1556076E0,2.2598549E1,3.7236245E0,2.0287334E1,4.9434326E1,4.750831E0,4.6224303E0,2.0544136E0,4.237228E0,1.1427675E1,3.338422E0,1.1556076E0,2.9788996E1,4.6224303E0,1.1556076E0,1.7976118E0,1.4766097E1,1.9902132E1,1.7976118E0,1.4124093E0,4.8792324E0,3.492503E1,3.5952237E0,1.3353688E1,8.602857E0,5.778038E1,4.513803E3,1.1119514E2,3.0816204E1,7.1904473E0,1.669211E0,7.9608526E0,1.9260128E0],"tree_param":{"num_deleted":"0","num_feature":"13","num_nodes":"105","size_leaf_vector":"1"}},{"base_weights":[-5.564992E-1,7.920161E-1,-7.276861E-1,1.4231803E0,5.751322E-1,2.8041103E-1,-7.5903624E-1,1.2413323E0,1.8526324E0,1.8816627E0,4.7639576E-1,-2.5431588E-1,7.7467704E-1,3.1145787E-1,-7.79384E-1,1.4428904E0,6.477226E-1,-1.659943E-2,1.9259452E0,2.0683773E0,-2.494234E-1,6.6692764E-1,-1.033959E-4,9.5490825E-1,-6.456693E-1,1.3128765E0,1.4399076E-1,7.766472E-1,-7.369214E-1,-7.878597E-1,5.944301E-1,1.739082E0,1.0664434E0,2.6605988E-1,1.6152452E0,1.9732141E0,7.5729705E-2,2.1623163E0,4.3231633E-2,-6.6430044E-1,7.9712105E-1,3.2738084E-1,-7.6208276E-1,8.725019E-1,3.0919182E-1,-7.160081E-1,2.3715694E-1,2.1189895E-1,1.7007838E0,5.020662E-1,-1.17411725E-1,9.712322E-1,-2.8348598E-1,-8.516215E-1,2.5210884E-1,-6.9119775E-1,-9.226251E-1,-6.612644E-1,1.1957722E0,5.386537E-1,3.0349942E-2,4.6732098E-1,1.18344374E-1,2.486889E-1,-2.8414255E-1,7.4957326E-2,6.031447E-1,4.436547E-2,6.0836494E-1,9.023899E-2,6.811317E-1,9.4764575E-2,-2.7071416E-1,5.631252E-2,2.9632694E-1,-3.0431123E-2,3.5039306E-1,-2.7796403E-1,1.839277E-1,3.681156E-1,-9.554572E-2,9.975917E-2,-2.2503193E-1,-1.2284916E-1,5.092827E-1,-6.6123895E-2,5.862219E-1,1.2111454E-1,-2.52861E-1,-2.1457182E-1,3.5987782E-1,1.6677907E-1,-2.9210624E-1,-2.478744E-1,-5.1499713E-2,-2.8572956E-1,-1.4649974E-1,-2.887696E-1,8.886791E-2,-3.234708E-1,4.8836726E-1],"categories":[],"categories_nodes":[],"categories_segments":[],"categories_sizes":[],"default_left":[0,0,0,0,0,0,0,0,0,0,0,0,0,0,0,1,0,0,0,0,0,0,0,0,0,0,0,0,0,0,0,0,0,0,0,0,0,0,0,1,0,0,0,0,0,0,0,0,0,0,0,0,0,0,0,0,0,0,0,0,0,0,0,0,0,0,0,0,0,0,0,0,0,0,0,0,0,0,0,0,0,0,0,0,0,0,0,0,0,0,0,0,0,0,0,0,0,0,0,0,0],"id":1,"left_children":[1,3,5,7,9,11,13,15,17,19,21,23,25,27,29,31,33,-1,35,37,-1,39,41,43,45,47,49,51,53,55,57,59,61,63,65,67,-1,69,-1,71,73,75,77,-1,79,81,-1,83,85,-1,87,89,-1,91,-1,93,95,97,99,-1,-1,-1,-1,-1,-1,-1,-1,-1,-1,-1,-1,-1,-1,-1,-1,-1,-1,-1,-1,-1,-1,-1,-1,-1,-1,-1,-1,-1,-1,-1,-1,-1,-1,-1,-1,-1,-1,-1,-1,-1,-1],"loss_changes":[1.0607819E3,7.006531E1,1.2902563E2,7.9894104E0,4.9036118E1,3.2879738E1,8.635156E1,1.0502319E1,5.304756E0,1.5324646E1,3.279373E1,2.9082108E1,2.1707165E1,3.688331E1,4.5643555E1,6.011093E0,9.187559E0,0E0,2.335083E0,4.2824097E0,0E0,4.5251198E1,2.6245323E1,1.8160969E1,5.217022E0,1.4451839E1,1.2521318E1,1.8357056E1,4.9484158E0,4.95979E1,1.9184135E1,3.320938E0,1.0494137E1,1.4357395E1,3.367138E0,3.161255E0,0E0,4.179825E0,0E0,5.7767143E0,2.7174042E1,2.6634617E1,7.718355E0,0E0,7.578317E0,1.8374329E0,0E0,1.0092026E1,1.2841576E1,0E0,1.064622E1,1.9060741E1,0E0,4.3739586E0,0E0,1.5769922E2,2.0346802E1,2.746486E0,1.8290253E1,0E0,0E0,0E0,0E0,0E0,0E0,0E0,0E0,0E0,0E0,0E0,0E0,0E0,0E0,0E0,0E0,0E0,0E0,0E0,0E0,0E0,0E0,0E0,0E0,0E0,0E0,0E0,0E0,0E0,0E0,0E0,0E0,0E0,0E0,0E0,0E0,0E0,0E0,0E0,0E0,0E0,0E0],"parents":[2147483647,0,0,1,1,2,2,3,3,4,4,5,5,6,6,7,7,8,8,9,9,10,10,11,11,12,12,13,13,14,14,15,15,16,16,18,18,19,19,21,21,22,22,23,23,24,24,25,25,26,26,27,27,28,28,29,29,30,30,31,31,32,32,33,33,34,34,35,35,37,37,39,39,40,40,41,41,42,42,44,44,45,45,47,47,48,48,50,50,51,51,53,53,55,55,56,56,57,57,58,58],"right_children":[2,4,6,8,10,12,14,16,18,20,22,24,26,28,30,32,34,-1,36,38,-1,40,42,44,46,48,50,52,54,56,58,60,62,64,66,68,-1,70,-1,72,74,76,78,-1,80,82,-1,84,86,-1,88,90,-1,92,-1,94,96,98,100,-1,-1,-1,-1,-1,-1,-1,-1,-1,-1,-1,-1,-1,-1,-1,-1,-1,-1,-1,-1,-1,-1,-1,-1,-1,-1,-1,-1,-1,-1,-1,-1,-1,-1,-1,-1,-1,-1,-1,-1,-1,-1],"split_conditions":[1.009887E4,8.046E2,2.9361E4,5E0,2.9361E4,1.47E2,0E0,8.38E2,1.5E1,9.61E2,4E0,1.8E1,2.43E2,1.24E2,5.35E2,2.27317E5,2.47E2,-1.659943E-2,4.9E2,9.41E3,-2.494234E-1,1.2E1,6.20322E3,9.1E1,9.9E1,3.19E2,0E0,8E1,9E1,6.15E2,8.6E1,9.4E1,5.7E1,6.2E1,4.3E1,8.2E1,7.5729705E-2,6E1,4.3231633E-2,9.9557E4,2.49E2,6.5E1,7.12E2,8.725019E-1,5.99E0,0E0,2.3715694E-1,5.4975E4,5.6E1,5.020662E-1,6.61E2,1.65E2,-2.8348598E-1,1.557228E4,2.5210884E-1,4.27E2,9.1E1,8.66062E5,7.89E2,5.386537E-1,3.0349942E-2,4.6732098E-1,1.18344374E-1,2.486889E-1,-2.8414255E-1,7.4957326E-2,6.031447E-1,4.436547E-2,6.0836494E-1,9.023899E-2,6.811317E-1,9.4764575E-2,-2.7071416E-1,5.631252E-2,2.9632694E-1,-3.0431123E-2,3.5039306E-1,-2.7796403E-1,1.839277E-1,3.681156E-1,-9.554572E-2,9.975917E-2,-2.2503193E-1,-1.2284916E-1,5.092827E-1,-6.6123895E-2,5.862219E-1,1.2111454E-1,-2.52861E-1,-2.1457182E-1,3.5987782E-1,1.6677907E-1,-2.9210624E-1,-2.478744E-1,-5.1499713E-2,-2.8572956E-1,-1.4649974E-1,-2.887696E-1,8.886791E-2,-3.234708E-1,4.8836726E-1],"split_indices":[2,2,4,10,4,6,11,0,12,0,10,7,6,5,6,4,6,0,6,2,0,7,2,5,7,0,11,12,12,0,12,12,12,12,7,5,0,5,0,4,1,7,1,0,3,10,0,2,7,0,0,0,0,2,0,1,7,4,0,0,0,0,0,0,0,0,0,0,0,0,0,0,0,0,0,0,0,0,0,0,0,0,0,0,0,0,0,0,0,0,0,0,0,0,0,0,0,0,0,0,0],"split_type":[0,0,0,0,0,0,0,0,0,0,0,0,0,0,0,0,0,0,0,0,0,0,0,0,0,0,0,0,0,0,0,0,0,0,0,0,0,0,0,0,0,0,0,0,0,0,0,0,0,0,0,0,0,0,0,0,0,0,0,0,0,0,0,0,0,0,0,0,0,0,0,0,0,0,0,0,0,0,0,0,0,0,0,0,0,0,0,0,0,0,0,0,0,0,0,0,0,0,0,0,0],"sum_hessian":[4.591654E3,5.1681854E2,4.0748352E3,1.307512E2,3.8606732E2,1.22658936E2,3.9521763E3,9.458881E1,3.616239E1,2.5857006E1,3.6021033E2,5.9151123E1,6.350781E1,7.34543E1,3.878722E3,6.95445E1,2.504431E1,1.3471849E0,3.481521E1,2.4414423E1,1.4425828E0,2.5703375E2,1.0317658E2,1.4110805E1,4.504032E1,3.3682774E1,2.9825037E1,5.1057945E1,2.239636E1,3.855363E3,2.3358847E1,3.689527E1,3.264923E1,1.8873997E1,6.1703134E0,3.3684685E1,1.130522E0,2.316009E1,1.2543331E0,2.2532846E1,2.3450089E2,7.256142E1,3.0615164E1,2.6350775E0,1.1475727E1,4.341546E1,1.6248597E0,9.178415E0,2.4504358E1,3.5646617E0,2.6260374E1,4.62647E1,4.7932415E0,2.1306986E1,1.0893731E0,2.2486353E3,1.6067278E3,7.53175E0,1.5827096E1,3.5573463E1,1.3218066E0,1.8098587E1,1.4550644E1,1.3108575E1,5.7654214E0,1.7515556E0,4.418758E0,1.0872675E0,3.2597416E1,1.4789728E0,2.1681116E1,4.33964E0,1.8193207E1,5.634976E1,1.7815114E2,4.863189E1,2.392953E1,2.7636244E1,2.9789202E0,4.2727404E0,7.2029867E0,1.0917395E0,4.232372E1,6.9824085E0,2.1960065E0,2.8694408E0,2.1634918E1,1.5540494E1,1.071988E1,5.263205E0,4.10015E1,1.4166896E0,1.9890297E1,1.7842394E3,4.6439587E2,1.5024196E3,1.0430817E2,5.72494E0,1.8068101E0,2.288535E0,1.3538561E1],"tree_param":{"num_deleted":"0","num_feature":"13","num_nodes":"101","size_leaf_vector":"1"}},{"base_weights":[-4.734406E-1,4.8986265E-1,-6.353298E-1,9.228168E-1,3.472974E-1,1.8405247E-1,-6.646629E-1,5.128053E-1,8.617539E-1,4.8972946E-1,-7.431207E-2,5.7565695E-1,-1.853898E-1,1.9166838E-1,-6.847175E-1,1.4834585E0,7.91028E-1,2.2229333E-1,9.5790833E-1,-3.124795E-1,7.35089E-1,-2.047953E-2,9.4990075E-1,-5.3278667E-1,2.3112537E-1,5.071397E-1,-5.705063E-1,-2.8776836E-1,-7.266334E-1,5.168231E-1,3.5773638E-1,3.1726602E-1,9.0860033E-1,-1.3802308E-1,5.2321905E-1,-1.9580786E-1,1.3407377E0,1.3656129E0,-4.5955363E-1,1.4475305E0,1.556499E-1,1.0076295E0,-8.322103E-1,1.9890906E-2,1.1787617E0,-2.7405468E-1,-9.090882E-1,1.0295345E0,-4.2360628E-1,1.6714337E0,2.6914185E-1,2.042068E-1,-6.748869E-1,-8.4137917E-1,7.107587E-1,-7.359123E-1,3.966215E-1,2.0448989E-1,-4.087451E-2,4.104083E-3,3.5993502E-1,3.36856E-1,2.1041968E-1,3.1976718E-1,-7.682873E-2,4.41368E-2,2.5155893E-1,2.0953689E-2,-2.9942706E-1,4.7224733E-1,1.3503826E-1,-2.625718E-1,6.547979E-1,3.2480536E-3,-2.4583219E-1,6.4570135E-1,-2.2227749E-1,5.062515E-1,-8.5031494E-2,4.0192443E-1,-2.0630275E-1,1.1286951E-1,-2.8816816E-1,3.3964917E-1,-2.3143956E-1,-1.6677748E-1,4.2234734E-1,-1.3882934E-1,1.1901625E-1,-3.141232E-1,2.7278148E-2,5.8795416E-1,5.9128635E-2,-1.7898843E-1,1.6576311E-1,5.6594586E-1,1.6667001E-1,1.4223962E-1,-1.8597028E-1,-2.3716955E-1,1.8912034E-1,3.7810758E-2,-2.781213E-1,1.1934143E0,-8.040493E-2,-2.0330627E-1,-2.855186E-1,-1.7226075E-1,2.3120232E-1],"categories":[],"categories_nodes":[],"categories_segments":[],"categories_sizes":[],"default_left":[0,0,0,0,0,0,0,0,0,0,0,0,0,0,0,1,0,0,0,0,0,0,0,0,0,0,0,0,0,0,0,0,0,0,0,1,0,0,0,0,0,0,0,0,0,0,0,0,0,0,0,0,0,0,0,0,0,0,0,0,0,0,0,0,0,0,0,0,0,0,0,0,0,0,0,0,0,0,0,0,0,0,0,0,0,0,0,0,0,0,0,0,0,0,0,0,0,0,0,0,0,0,0,0,0,0,0,0,0],"id":2,"left_children":[1,3,5,7,9,11,13,-1,15,17,19,21,23,25,27,29,31,33,35,37,39,41,43,45,47,49,51,53,55,-1,57,59,61,63,65,67,69,71,73,75,77,79,81,83,85,87,89,91,93,95,97,-1,99,101,103,105,107,-1,-1,-1,-1,-1,-1,-1,-1,-1,-1,-1,-1,-1,-1,-1,-1,-1,-1,-1,-1,-1,-1,-1,-1,-1,-1,-1,-1,-1,-1,-1,-1,-1,-1,-1,-1,-1,-1,-1,-1,-1,-1,-1,-1,-1,-1,-1,-1,-1,-1,-1,-1],"loss_changes":[6.213238E2,3.507875E1,8.207373E1,5.3211746E0,2.6040958E1,1.7269125E1,5.666638E1,0E0,4.687317E0,4.0332253E1,2.1477253E1,1.2921326E1,9.064952E0,1.8590446E1,5.3315674E1,2.743248E0,6.497078E0,2.2560036E1,5.212641E1,2.1818996E1,1.0242574E1,2.026849E1,7.542679E0,3.060834E0,1.5491323E1,1.4613704E1,3.4308424E0,1.7135838E2,3.0611084E1,0E0,6.446142E-1,6.8843346E0,3.5212631E0,1.3802204E1,1.3303257E1,6.491067E0,1.7646973E1,1.5039161E1,1.3499542E1,1.895154E1,1.0637814E1,6.959523E0,2.4642477E0,7.947963E0,1.2111351E1,2.9148521E0,1.9470205E0,9.888757E0,3.121917E0,1.1199017E0,8.736817E0,0E0,3.7450972E0,1.6629013E1,3.5514417E2,3.5614258E1,9.333407E0,0E0,0E0,0E0,0E0,0E0,0E0,0E0,0E0,0E0,0E0,0E0,0E0,0E0,0E0,0E0,0E0,0E0,0E0,0E0,0E0,0E0,0E0,0E0,0E0,0E0,0E0,0E0,0E0,0E0,0E0,0E0,0E0,0E0,0E0,0E0,0E0,0E0,0E0,0E0,0E0,0E0,0E0,0E0,0E0,0E0,0E0,0E0,0E0,0E0,0E0,0E0,0E0],"parents":[2147483647,0,0,1,1,2,2,3,3,4,4,5,5,6,6,8,8,9,9,10,10,11,11,12,12,13,13,14,14,15,15,16,16,17,17,18,18,19,19,20,20,21,21,22,22,23,23,24,24,25,25,26,26,27,27,28,28,30,30,31,31,32,32,33,33,34,34,35,35,36,36,37,37,38,38,39,39,40,40,41,41,42,42,43,43,44,44,45,45,46,46,47,47,48,48,49,49,50,50,52,52,53,53,54,54,55,55,56,56],"right_children":[2,4,6,8,10,12,14,-1,16,18,20,22,24,26,28,30,32,34,36,38,40,42,44,46,48,50,52,54,56,-1,58,60,62,64,66,68,70,72,74,76,78,80,82,84,86,88,90,92,94,96,98,-1,100,102,104,106,108,-1,-1,-1,-1,-1,-1,-1,-1,-1,-1,-1,-1,-1,-1,-1,-1,-1,-1,-1,-1,-1,-1,-1,-1,-1,-1,-1,-1,-1,-1,-1,-1,-1,-1,-1,-1,-1,-1,-1,-1,-1,-1,-1,-1,-1,-1,-1,-1,-1,-1,-1,-1],"split_conditions":[1.086995E4,8.046E2,2.9361E4,3.1641E4,7.1E1,1.1E2,0E0,5.128053E-1,0E0,1.5E2,6.3E1,1.75E2,6.5E1,1.22E2,9.4E1,1.42E2,1.8E1,1.75845E3,1E0,8.3E1,3.84E2,1.8E1,5.8E1,5.97E2,7.1E1,8.2164E4,1.5E1,1.65E2,5.35E2,5.168231E-1,1.93746E5,5E0,5.6E1,0E0,4.3E2,3.36943E5,2E0,4.7E1,4.8E1,6.7E1,0E0,4.8E1,0E0,2E0,1E0,5.3E2,3.82E2,6.2E1,8.99E0,6.9E1,4.23647E5,2.042068E-1,9E1,1.8E1,1.91E2,8.4E1,8.6E1,2.0448989E-1,-4.087451E-2,4.104083E-3,3.5993502E-1,3.36856E-1,2.1041968E-1,3.1976718E-1,-7.682873E-2,4.41368E-2,2.5155893E-1,2.0953689E-2,-2.9942706E-1,4.7224733E-1,1.3503826E-1,-2.625718E-1,6.547979E-1,3.2480536E-3,-2.4583219E-1,6.4570135E-1,-2.2227749E-1,5.062515E-1,-8.5031494E-2,4.0192443E-1,-2.0630275E-1,1.1286951E-1,-2.8816816E-1,3.3964917E-1,-2.3143956E-1,-1.6677748E-1,4.2234734E-1,-1.3882934E-1,1.1901625E-1,-3.141232E-1,2.7278148E-2,5.8795416E-1,5.9128635E-2,-1.7898843E-1,1.6576311E-1,5.6594586E-1,1.6667001E-1,1.4223962E-1,-1.8597028E-1,-2.3716955E-1,1.8912034E-1,3.7810758E-2,-2.781213E-1,1.1934143E0,-8.040493E-2,-2.0330627E-1,-2.855186E-1,-1.7226075E-1,2.3120232E-1],"split_indices":[2,2,4,4,12,5,11,0,11,6,7,6,12,5,5,5,7,2,11,5,0,7,12,1,12,4,12,6,6,0,4,10,12,11,1,4,11,7,7,7,11,6,10,9,9,0,6,7,3,7,4,0,12,12,6,12,12,0,0,0,0,0,0,0,0,0,0,0,0,0,0,0,0,0,0,0,0,0,0,0,0,0,0,0,0,0,0,0,0,0,0,0,0,0,0,0,0,0,0,0,0,0,0,0,0,0,0,0,0],"split_type":[0,0,0,0,0,0,0,0,0,0,0,0,0,0,0,0,0,0,0,0,0,0,0,0,0,0,0,0,0,0,0,0,0,0,0,0,0,0,0,0,0,0,0,0,0,0,0,0,0,0,0,0,0,0,0,0,0,0,0,0,0,0,0,0,0,0,0,0,0,0,0,0,0,0,0,0,0,0,0,0,0,0,0,0,0,0,0,0,0,0,0,0,0,0,0,0,0,0,0,0,0,0,0,0,0,0,0,0,0],"sum_hessian":[3.9811675E3,5.725066E2,3.408661E3,1.4046321E2,4.3204343E2,1.1762708E2,3.2910337E3,8.174643E0,1.3228856E2,3.228228E2,1.09220604E2,5.682989E1,6.0797195E1,7.5113785E1,3.21592E3,1.1471896E1,1.20816666E2,2.0639777E2,1.1642505E2,8.486337E1,2.4357231E1,2.2281986E1,3.4547905E1,3.2996838E1,2.7800354E1,5.336155E1,2.1752235E1,3.079034E2,2.9080166E3,9.023501E0,2.4483945E0,2.475678E1,9.605989E1,9.417623E1,1.1222153E2,2.9128946E1,8.7296104E1,6.1707625E0,7.869261E1,1.0252837E1,1.4104393E1,9.7242565E0,1.2557729E1,7.037385E0,2.751052E1,2.0577053E1,1.2419786E1,1.2267889E1,1.5532466E1,8.034346E0,4.53272E1,1.2498026E0,2.0502432E1,1.9818282E2,1.0972061E2,2.8845332E3,2.3483385E1,1.2493517E0,1.1990429E0,1.9175808E1,5.580972E0,4.505373E1,5.1006157E1,7.6943474E0,8.648189E1,5.184657E1,6.0374958E1,2.2568844E1,6.560104E0,6.855977E1,1.8736332E1,1.6297493E0,4.5410132E0,3.4530445E1,4.4162163E1,7.7676992E0,2.4851384E0,2.5087767E0,1.1595616E1,8.30667E0,1.4175863E0,1.0202821E0,1.1537447E1,2.7464752E0,4.29091E0,3.0425327E0,2.4467989E1,1.6301146E1,4.2759066E0,1.0872466E1,1.5473202E0,5.1537952E0,7.114094E0,1.3524121E1,2.0083442E0,6.1571283E0,1.8772169E0,3.7213444E1,8.11376E0,1.9195602E1,1.3068306E0,1.6087925E1,1.820949E2,2.4585716E1,8.5134895E1,2.2749248E3,6.096083E2,6.3826494E0,1.7100735E1],"tree_param":{"num_deleted":"0","num_feature":"13","num_nodes":"109","size_leaf_vector":"1"}},{"base_weights":[-4.0052676E-1,3.2980347E-1,-5.5074763E-1,1.111804E0,2.7662855E-1,-3.4450117E-1,-6.651979E-1,1.2478671E0,-2.0320894E-1,7.940564E-1,2.0031731E-1,-5.250427E-1,-2.7364615E-2,1.02797404E-1,-6.842995E-1,1.2959149E0,2.4716437E-2,1.23726495E-1,8.42726E-1,2.8300306E-1,-3.0405715E-1,-3.725968E-1,-8.1907266E-1,9.0839976E-1,-1.9691478E-1,-3.5044184E-1,5.3433055E-1,-7.415472E-1,-4.7319055E-1,7.292853E-1,1.4582164E0,-3.3559468E-1,3.84018E-1,6.24356E-1,9.632752E-1,-8.926399E-3,4.0586478E-1,2.6781443E-1,-6.2206924E-1,-4.5248473E-1,1.7769533E0,-8.922239E-1,1.8490522E-1,-8.279626E-1,1.5122916E0,-3.0986756E-1,4.9510914E-1,-9.18344E-1,4.434748E-1,1.272817E0,-1.970806E-1,-8.710561E-1,-6.3347065E-1,2.081469E0,-5.484734E-1,5.543377E-1,1.0220999E-1,1.8077208E-1,4.5969063E-1,2.81586E-1,4.016398E-2,3.9840677E-1,2.3874456E-1,2.523211E-1,-5.133236E-2,1.04905955E-1,4.4031852E-1,2.1346813E-1,-3.2688326E-1,-2.1850748E-1,1.8374872E-1,-1.6900975E-1,6.752329E-2,8.0539286E-1,-2.5842234E-1,-2.74888E-1,1.067911E-3,1.2977782E0,-1.1757755E-1,-2.907001E-1,1.5537786E-2,-9.964887E-2,6.2218237E-1,-1.1414294E-1,1.3580447E-1,4.0601394E-1,-6.8353295E-2,-3.1727135E-1,1.0430489E-1,2.6335108E-1,-2.6291758E-1,4.5533854E-1,-1.7410983E-1,2.7850446E-1,-2.7748558E-1,-2.6651704E-1,-2.1627934E-3,3.2430902E-2,-2.4343495E-1,-9.463279E-2,1.0744466E0,-1.8861683E-2,-2.290613E-1],"categories":[],"categories_nodes":[],"categories_segments":[],"categories_sizes":[],"default_left":[0,0,0,0,0,0,0,0,0,0,0,0,0,0,0,0,0,0,0,0,0,0,0,0,0,0,0,0,0,0,0,0,0,0,0,0,1,1,0,0,0,0,0,0,0,0,0,1,0,1,1,0,0,1,0,0,0,0,0,0,0,0,0,0,0,0,0,0,0,0,0,0,0,0,0,0,0,0,0,0,0,0,0,0,0,0,0,0,0,0,0,0,0,0,0,0,0,0,0,0,0,0,0],"id":3,"left_children":[1,3,5,7,9,11,13,15,-1,17,19,21,23,25,27,29,-1,31,33,35,37,39,41,43,45,47,49,51,53,55,57,-1,-1,59,61,63,65,67,69,71,73,75,77,79,81,83,85,87,89,91,93,95,97,99,101,-1,-1,-1,-1,-1,-1,-1,-1,-1,-1,-1,-1,-1,-1,-1,-1,-1,-1,-1,-1,-1,-1,-1,-1,-1,-1,-1,-1,-1,-1,-1,-1,-1,-1,-1,-1,-1,-1,-1,-1,-1,-1,-1,-1,-1,-1,-1,-1],"loss_changes":[3.8339868E2,2.4497498E1,6.816504E1,1.0010471E1,2.1947853E1,5.930989E1,2.7390747E1,1.8722191E0,0E0,2.2323532E0,2.0490099E1,2.9287048E1,5.9981388E1,9.19707E0,2.1611755E1,2.051651E0,0E0,1.0080518E1,1.1518021E0,1.5098595E1,1.2786341E1,7.57799E1,1.665886E1,6.2065983E1,2.516093E1,1.0809458E1,1.32108E1,1.943335E1,7.6231E1,3.517961E0,6.823807E-1,0E0,0E0,3.963849E0,1.4517021E0,1.7463552E1,1.7157513E1,1.6133595E1,6.3372307E0,3.1813217E1,4.0265713E1,4.52034E0,4.0106373E1,1.9873009E0,4.5632698E1,1.5014067E1,2.840205E1,2.7959194E0,6.6717887E0,6.3619976E0,1.1442792E1,9.679535E0,1.0329767E2,4.2063107E1,3.964276E1,0E0,0E0,0E0,0E0,0E0,0E0,0E0,0E0,0E0,0E0,0E0,0E0,0E0,0E0,0E0,0E0,0E0,0E0,0E0,0E0,0E0,0E0,0E0,0E0,0E0,0E0,0E0,0E0,0E0,0E0,0E0,0E0,0E0,0E0,0E0,0E0,0E0,0E0,0E0,0E0,0E0,0E0,0E0,0E0,0E0,0E0,0E0,0E0],"parents":[2147483647,0,0,1,1,2,2,3,3,4,4,5,5,6,6,7,7,9,9,10,10,11,11,12,12,13,13,14,14,15,15,17,17,18,18,19,19,20,20,21,21,22,22,23,23,24,24,25,25,26,26,27,27,28,28,29,29,30,30,33,33,34,34,35,35,36,36,37,37,38,38,39,39,40,40,41,41,42,42,43,43,44,44,45,45,46,46,47,47,48,48,49,49,50,50,51,51,52,52,53,53,54,54],"right_children":[2,4,6,8,10,12,14,16,-1,18,20,22,24,26,28,30,-1,32,34,36,38,40,42,44,46,48,50,52,54,56,58,-1,-1,60,62,64,66,68,70,72,74,76,78,80,82,84,86,88,90,92,94,96,98,100,102,-1,-1,-1,-1,-1,-1,-1,-1,-1,-1,-1,-1,-1,-1,-1,-1,-1,-1,-1,-1,-1,-1,-1,-1,-1,-1,-1,-1,-1,-1,-1,-1,-1,-1,-1,-1,-1,-1,-1,-1,-1,-1,-1,-1,-1,-1,-1,-1],"split_conditions":[1.141903E4,2.9361E4,1.8087E5,9.37E2,4E2,5.5E1,0E0,9.8E1,-2.0320894E-1,1E0,8.1E1,7.9E1,9.3E1,3E0,2E0,1E0,2.4716437E-2,2.2E1,1.15E2,1E0,1E0,4.2E1,1.199E1,1.75E2,9.4E1,6.5E1,1.9E1,4.25E2,1.3E1,2E0,2.2E1,-3.3559468E-1,3.84018E-1,1.91E2,1.22E2,0E0,1.56E2,3.41259E5,4.7E2,2.86E2,4.4E1,5.3E2,0E0,1.68E2,1.73E2,1.67815E5,3E0,6.89922E5,4.06219E5,1.36E2,1.03E2,9.5E1,5.78E2,1.2E2,2.75E2,5.543377E-1,1.0220999E-1,1.8077208E-1,4.5969063E-1,2.81586E-1,4.016398E-2,3.9840677E-1,2.3874456E-1,2.523211E-1,-5.133236E-2,1.04905955E-1,4.4031852E-1,2.1346813E-1,-3.2688326E-1,-2.1850748E-1,1.8374872E-1,-1.6900975E-1,6.752329E-2,8.0539286E-1,-2.5842234E-1,-2.74888E-1,1.067911E-3,1.2977782E0,-1.1757755E-1,-2.907001E-1,1.5537786E-2,-9.964887E-2,6.2218237E-1,-1.1414294E-1,1.3580447E-1,4.0601394E-1,-6.8353295E-2,-3.1727135E-1,1.0430489E-1,2.6335108E-1,-2.6291758E-1,4.5533854E-1,-1.7410983E-1,2.7850446E-1,-2.7748558E-1,-2.6651704E-1,-2.1627934E-3,3.2430902E-2,-2.4343495E-1,-9.463279E-2,1.0744466E0,-1.8861683E-2,-2.290613E-1],"split_indices":[2,4,4,0,2,7,11,12,0,10,12,12,5,10,11,11,0,7,5,11,11,7,3,6,7,7,7,1,12,10,7,0,0,6,5,11,5,4,6,6,7,6,9,6,1,4,10,4,4,5,5,7,0,5,1,0,0,0,0,0,0,0,0,0,0,0,0,0,0,0,0,0,0,0,0,0,0,0,0,0,0,0,0,0,0,0,0,0,0,0,0,0,0,0,0,0,0,0,0,0,0,0,0],"split_type":[0,0,0,0,0,0,0,0,0,0,0,0,0,0,0,0,0,0,0,0,0,0,0,0,0,0,0,0,0,0,0,0,0,0,0,0,0,0,0,0,0,0,0,0,0,0,0,0,0,0,0,0,0,0,0,0,0,0,0,0,0,0,0,0,0,0,0,0,0,0,0,0,0,0,0,0,0,0,0,0,0,0,0,0,0,0,0,0,0,0,0,0,0,0,0,0,0,0,0,0,0,0,0],"sum_hessian":[3.4919734E3,5.955221E2,2.8964512E3,3.6648823E1,5.588733E2,1.035117E3,1.8613342E3,3.4339878E1,2.3089461E0,7.062121E1,4.8825208E2,6.591922E2,3.7592477E2,4.506535E1,1.8162688E3,3.2872757E1,1.4671204E0,5.020172E0,6.5601036E1,4.1986026E2,6.839184E1,4.3560898E2,2.2358324E2,5.6996674E1,3.189281E2,2.2071535E1,2.2993816E1,1.4268333E3,3.8943555E2,8.542489E0,2.4330267E1,2.4357593E0,2.5844126E0,2.5531322E1,4.0069714E1,1.2463785E2,2.952224E2,2.4497166E1,4.3894672E1,4.2076093E2,1.4848063E1,2.0850275E2,1.5080485E1,1.4611983E1,4.2384693E1,2.7465146E2,4.427664E1,1.2775951E1,9.295584E0,1.1073239E1,1.1920577E1,6.4584875E2,7.809845E2,1.0384879E1,3.7905066E2,1.23435E0,7.3081393E0,2.6665645E0,2.1663702E1,1.5004047E1,1.0527275E1,1.0427353E1,2.9642363E1,1.9300022E1,1.0533783E2,2.8165088E2,1.3571526E1,1.8820496E1,5.67667E0,4.079268E1,3.101991E0,3.6173294E2,5.9027977E1,1.1034325E1,3.8137388E0,2.0302464E2,5.4781084E0,1.0491606E0,1.4031324E1,1.2505693E1,2.1062894E0,9.989109E0,3.2395584E1,2.5183374E2,2.2817713E1,1.9845085E1,2.4431559E1,1.1658501E1,1.1174511E0,7.245897E0,2.0496867E0,9.940193E0,1.133046E0,4.573555E0,7.347022E0,6.3311615E2,1.2732614E1,1.5123529E2,6.297492E2,4.301358E0,6.0835204E0,1.167436E2,2.6230707E2],"tree_param":{"num_deleted":"0","num_feature":"13","num_nodes":"103","size_leaf_vector":"1"}},{"base_weights":[-3.327051E-1,2.1105367E-1,-4.7337767E-1,5.144214E-1,1.0053846E-1,-5.656986E-1,-2.3213203E-1,6.87628E-1,-1.1008228E-2,2.3541468E-1,-2.2902839E-1,-3.962373E-1,-6.8470824E-1,5.376424E-1,-3.412798E-1,5.673308E-1,1.6845009E0,3.1964347E-1,-5.7723945E-1,9.137958E-2,4.3308163E-1,3.2300882E-2,-8.283802E-1,-8.719726E-2,-5.1564103E-1,-6.968909E-1,1.2870008E0,-7.7597225E-1,1.2852156E0,-1.6961049E-1,-6.4666206E-1,-6.717003E-2,8.6926156E-1,8.4244007E-1,9.494611E-1,4.9471465E-1,-5.8590674E-1,7.4418706E-1,-8.952274E-1,1.6001937E-1,-5.023335E-1,-5.139646E-2,5.811652E-1,-1.3799493E-1,9.7065806E-1,-9.104262E-1,-1.8161935E-1,-2.0350155E-1,9.712849E-1,-8.425967E-1,-4.3367487E-1,-7.1448034E-1,3.4605595E-1,1.2941984E0,-1.6064112E-1,-1.3048039E-2,-9.588112E-1,-8.462389E-1,1.6970465E0,-8.3207756E-1,-4.9607814E-3,2.2600836E-1,-7.2293943E-1,4.749393E-2,-3.0802006E-1,2.211514E-1,5.293634E-1,-1.2661406E-1,4.5948237E-1,2.1740374E-1,-3.2158628E-2,-3.3299708E-1,2.0009007E-1,1.913252E-2,2.9443204E-1,-3.6627695E-2,-3.2216573E-1,1.03674464E-1,-5.094563E-2,-2.5119328E-1,7.7653885E-2,-1.0208915E-1,2.9414397E-1,-1.132296E-1,1.9973482E-1,-1.13565795E-1,2.3448133E-1,4.6560332E-1,-8.5238405E-2,-1.3068726E-2,-2.8643322E-1,2.3986143E-1,-1.6677204E-1,-1.11419484E-1,7.646131E-2,6.1756983E-2,8.7748235E-1,-2.5737295E-1,1.0219962E-2,-5.723603E-2,-2.0065059E-1,-1.8971936E-1,-2.7890295E-1,-2.8505674E-1,1.7684571E-1,-2.3970005E-1,2.4939336E-1,-2.4806415E-1,1.9943164E-1,-2.9860702E-1,-1.4143817E-2,-3.111229E-1,6.96327E-2,6.98136E-2,5.903744E-1,-2.8244E-1,2.546938E-1,3.1216466E-1,-5.0258305E-2,2.2820778E-1,-2.9796886E-1,-7.278266E-2,-2.8216872E-1],"categories":[],"categories_nodes":[],"categories_segments":[],"categories_sizes":[],"default_left":[0,0,0,0,0,0,0,0,0,0,0,1,0,0,0,0,0,0,0,0,0,0,0,1,0,0,0,0,0,0,0,0,0,0,0,0,0,0,0,0,0,0,0,0,0,0,1,0,0,0,0,0,0,0,0,0,0,0,0,0,0,0,0,0,0,0,0,0,0,0,0,0,0,0,0,0,0,0,0,0,0,0,0,0,0,0,0,0,0,0,0,0,0,0,0,0,0,0,0,0,0,0,0,0,0,0,0,0,0,0,0,0,0,0,0,0,0,0,0,0,0,0,0],"id":4,"left_children":[1,3,5,7,9,11,13,15,17,19,21,23,25,27,29,31,33,35,37,39,41,43,45,47,49,51,53,55,57,59,61,63,65,67,-1,69,71,73,75,77,79,81,83,85,87,89,91,93,95,97,99,101,103,-1,105,107,109,111,113,115,117,119,121,-1,-1,-1,-1,-1,-1,-1,-1,-1,-1,-1,-1,-1,-1,-1,-1,-1,-1,-1,-1,-1,-1,-1,-1,-1,-1,-1,-1,-1,-1,-1,-1,-1,-1,-1,-1,-1,-1,-1,-1,-1,-1,-1,-1,-1,-1,-1,-1,-1,-1,-1,-1,-1,-1,-1,-1,-1,-1,-1,-1],"loss_changes":[2.3870267E2,2.1466135E1,5.5070007E1,1.55821E1,2.1020332E1,3.586566E1,5.7960987E1,1.4480801E1,8.312321E0,9.503714E0,2.156063E1,2.7320503E1,2.6148285E1,8.5240845E1,3.1496399E1,2.2351814E1,1.3979099E1,4.7369375E0,7.5410542E0,8.033992E0,1.0147411E1,1.55867815E1,2.051773E0,2.5789146E1,1.3964706E1,1.9425507E1,3.052E1,4.414583E0,4.9757652E1,4.2239452E1,1.4581062E1,8.481527E0,8.032188E0,9.251247E0,0E0,3.4064422E0,4.024911E0,5.37848E-1,1.7531395E0,1.0812633E1,5.435381E0,1.0449331E1,9.019028E0,1.8595726E1,1.1367392E1,1.3743534E0,2.6305566E0,1.4572855E1,3.0432453E1,1.4538345E0,2.4410065E1,1.757788E1,6.2439003E0,0E0,4.1904306E0,4.493506E0,8.0558777E-1,2.212422E0,1.797293E1,1.4975239E1,5.306743E1,1.2601992E1,2.0617722E1,0E0,0E0,0E0,0E0,0E0,0E0,0E0,0E0,0E0,0E0,0E0,0E0,0E0,0E0,0E0,0E0,0E0,0E0,0E0,0E0,0E0,0E0,0E0,0E0,0E0,0E0,0E0,0E0,0E0,0E0,0E0,0E0,0E0,0E0,0E0,0E0,0E0,0E0,0E0,0E0,0E0,0E0,0E0,0E0,0E0,0E0,0E0,0E0,0E0,0E0,0E0,0E0,0E0,0E0,0E0,0E0,0E0,0E0,0E0,0E0],"parents":[2147483647,0,0,1,1,2,2,3,3,4,4,5,5,6,6,7,7,8,8,9,9,10,10,11,11,12,12,13,13,14,14,15,15,16,16,17,17,18,18,19,19,20,20,21,21,22,22,23,23,24,24,25,25,26,26,27,27,28,28,29,29,30,30,31,31,32,32,33,33,35,35,36,36,37,37,38,38,39,39,40,40,41,41,42,42,43,43,44,44,45,45,46,46,47,47,48,48,49,49,50,50,51,51,52,52,54,54,55,55,56,56,57,57,58,58,59,59,60,60,61,61,62,62],"right_children":[2,4,6,8,10,12,14,16,18,20,22,24,26,28,30,32,34,36,38,40,42,44,46,48,50,52,54,56,58,60,62,64,66,68,-1,70,72,74,76,78,80,82,84,86,88,90,92,94,96,98,100,102,104,-1,106,108,110,112,114,116,118,120,122,-1,-1,-1,-1,-1,-1,-1,-1,-1,-1,-1,-1,-1,-1,-1,-1,-1,-1,-1,-1,-1,-1,-1,-1,-1,-1,-1,-1,-1,-1,-1,-1,-1,-1,-1,-1,-1,-1,-1,-1,-1,-1,-1,-1,-1,-1,-1,-1,-1,-1,-1,-1,-1,-1,-1,-1,-1,-1,-1,-1],"split_conditions":[1.249549E4,1.22272E5,6.4E1,7.2E1,6.20322E3,3.268568E4,9.3E1,1.18073E5,4.69995E3,1.38E2,4E0,1.26784E5,2.1957E5,1.68E2,4E0,2.8E1,4.69995E3,8.71E2,8.3E1,8.2E1,1E0,7.1E1,7.03E2,1.16785E5,2.11E2,5.35E2,7.76E2,3E0,1E0,4.6E1,9.7E1,1.8E1,1.009887E4,4.39E2,9.494611E-1,1.23E2,3.19E2,7.21E2,2.22E2,5.73E2,4E0,7.94054E5,2.6E1,7.71E2,8.6E1,7.3E1,1.84399E5,2.75E2,2E0,8.66062E5,5.78E2,8.4E1,7.89E2,1.2941984E0,1E0,2.37116E5,9.91E2,3.75E2,8.6E1,9.76E2,5.6E1,6.6E1,5.5E1,4.749393E-2,-3.0802006E-1,2.211514E-1,5.293634E-1,-1.2661406E-1,4.5948237E-1,2.1740374E-1,-3.2158628E-2,-3.3299708E-1,2.0009007E-1,1.913252E-2,2.9443204E-1,-3.6627695E-2,-3.2216573E-1,1.03674464E-1,-5.094563E-2,-2.5119328E-1,7.7653885E-2,-1.0208915E-1,2.9414397E-1,-1.132296E-1,1.9973482E-1,-1.13565795E-1,2.3448133E-1,4.6560332E-1,-8.5238405E-2,-1.3068726E-2,-2.8643322E-1,2.3986143E-1,-1.6677204E-1,-1.11419484E-1,7.646131E-2,6.1756983E-2,8.7748235E-1,-2.5737295E-1,1.0219962E-2,-5.723603E-2,-2.0065059E-1,-1.8971936E-1,-2.7890295E-1,-2.8505674E-1,1.7684571E-1,-2.3970005E-1,2.4939336E-1,-2.4806415E-1,1.9943164E-1,-2.9860702E-1,-1.4143817E-2,-3.111229E-1,6.96327E-2,6.98136E-2,5.903744E-1,-2.8244E-1,2.546938E-1,3.1216466E-1,-5.0258305E-2,2.2820778E-1,-2.9796886E-1,-7.278266E-2,-2.8216872E-1],"split_indices":[2,4,7,12,2,2,5,4,2,6,10,4,2,6,10,12,2,0,5,7,9,7,1,4,1,6,1,10,9,12,5,12,2,1,0,5,6,0,0,1,10,4,12,0,7,0,4,6,11,4,0,12,0,0,11,4,0,6,5,0,12,7,12,0,0,0,0,0,0,0,0,0,0,0,0,0,0,0,0,0,0,0,0,0,0,0,0,0,0,0,0,0,0,0,0,0,0,0,0,0,0,0,0,0,0,0,0,0,0,0,0,0,0,0,0,0,0,0,0,0,0,0,0],"split_type":[0,0,0,0,0,0,0,0,0,0,0,0,0,0,0,0,0,0,0,0,0,0,0,0,0,0,0,0,0,0,0,0,0,0,0,0,0,0,0,0,0,0,0,0,0,0,0,0,0,0,0,0,0,0,0,0,0,0,0,0,0,0,0,0,0,0,0,0,0,0,0,0,0,0,0,0,0,0,0,0,0,0,0,0,0,0,0,0,0,0,0,0,0,0,0,0,0,0,0,0,0,0,0,0,0,0,0,0,0,0,0,0,0,0,0,0,0,0,0,0,0,0,0],"sum_hessian":[3.1183186E3,6.408116E2,2.477507E3,1.701339E2,4.7067767E2,1.7908368E3,6.8667035E2,1.2772198E2,4.2411915E1,3.3419363E2,1.3648405E2,7.406014E2,1.0502354E3,8.478572E1,6.0188464E2,1.1536899E2,1.2352986E1,2.7050955E1,1.5360961E1,1.9416939E2,1.4002423E2,9.570213E1,4.0781918E1,2.0688167E2,5.337197E2,1.0444287E3,5.8067036E0,3.0737194E1,5.4048527E1,3.862892E2,2.1559543E2,3.744877E1,7.792022E1,8.874234E0,3.4787517E0,2.304862E1,4.002334E0,2.719508E0,1.2641453E1,1.7470235E2,1.9467041E1,3.2932724E1,1.070915E2,8.1723625E1,1.3978504E1,3.5829086E1,4.952833E0,1.8712808E2,1.9753586E1,1.0512111E2,4.2859863E2,1.0274161E3,1.70126E1,1.2380168E0,4.5686865E0,6.149366E0,2.4587828E1,8.5812025E0,4.5467323E1,7.608959E1,3.1019962E2,1.7171986E1,1.9842345E2,3.0999388E1,6.4493794E0,6.949091E1,8.429311E0,3.267188E0,5.6070466E0,1.652945E1,6.519171E0,2.9023223E0,1.1000118E0,1.0311382E0,1.6883698E0,2.6888726E0,9.95258E0,1.11772835E2,6.292952E1,1.34486065E1,6.018434E0,2.6252787E1,6.679938E0,8.405748E0,9.868575E1,6.524465E1,1.6478977E1,9.390796E0,4.587708E0,1.8403728E0,3.3988712E1,1.0539215E0,3.8989117E0,1.3709975E2,5.0028343E1,1.4987114E1,4.766473E0,1.0333746E2,1.7836448E0,2.1172617E2,2.1687247E2,7.465841E2,2.8083197E2,2.230739E0,1.478186E1,2.8981404E0,1.670546E0,2.6943967E0,3.454969E0,2.3551912E1,1.035915E0,7.323433E0,1.2577692E0,7.3877435E0,3.807958E1,7.18539E1,4.235694E0,4.101579E1,2.6918384E2,1.2198535E1,4.97345E0,6.2528126E1,1.3589532E2],"tree_param":{"num_deleted":"0","num_feature":"13","num_nodes":"123","size_leaf_vector":"1"}},{"base_weights":[-2.721484E-1,1.278014E-1,-4.0058395E-1,4.4018936E-1,5.0514508E-2,-4.3517753E-1,2.801719E-1,6.0594034E-1,2.3080522E-1,1.4656861E-1,-2.3900272E-1,-3.085193E-1,-6.0811025E-1,-4.7929427E-1,1.1184033E0,4.5037505E-1,9.4957113E-1,5.0922245E-1,-1.13572314E-1,-8.023607E-2,3.5327885E-1,3.9269E-1,-3.567999E-1,-4.1572547E-1,1.064956E0,-6.333413E-1,3.194063E-1,-8.212055E-1,7.727654E-1,1.4369287E0,-2.8685233E-1,-1.6765392E-1,5.289463E-1,2.1313772E-1,1.2012547E0,8.409569E-2,6.898126E-1,-6.508718E-1,2.6472384E-1,1.8574086E-1,-4.6435955E-1,1.8072009E-1,7.349437E-1,-7.066279E-1,7.02852E-1,-5.193969E-2,-6.6070753E-1,-5.265385E-1,-6.299466E-2,1.9308124E0,6.5726113E-1,6.301125E-2,-6.6448075E-1,-6.324167E-1,6.508527E-1,-9.059134E-1,3.3073524E-1,1.4778382E0,-2.7200004E-1,1.854628E0,6.2005925E-1,1.687308E-1,-1.5876612E-1,3.89075E-1,1.2745042E-1,2.0018835E-1,-2.5328216E-1,4.0800944E-1,6.711948E-2,-1.3744101E-1,1.9012459E-1,5.0609604E-2,2.7067506E-1,5.950634E-2,-2.7374494E-1,-1.0924489E-1,2.1146975E-1,-2.2214886E-2,3.844778E-1,2.739721E-1,-1.5672228E-1,1.4184923E-1,-9.55429E-2,3.426178E-1,-1.0032485E-1,-2.9758582E-1,-1.3796978E-4,-1.3256702E-1,3.4235787E-1,-8.7240614E-2,1.6130257E-1,-2.2511679E-1,2.8018364E-1,-1.8843858E-1,1.9561138E-3,5.128681E-1,-4.9304448E-2,6.7563105E-1,-5.6435507E-2,5.9714156E-1,1.3759984E-1,-1.240614E-1,1.7428121E-1,-2.2779854E-1,-1.6161436E-1,-2.6249224E-1,4.3106765E-2,-5.361871E-2,3.9264363E-1,-2.892311E-1,-7.5878695E-2,1.37968445E-2,6.310638E-1,6.385026E-1,1.2285853E-1,7.697097E-1,-2.6876405E-1],"categories":[],"categories_nodes":[],"categories_segments":[],"categories_sizes":[],"default_left":[0,0,0,0,0,0,0,0,0,0,1,0,0,0,0,0,0,0,0,0,0,0,0,0,1,0,0,1,0,0,0,0,0,0,1,0,0,0,0,0,0,0,1,0,0,0,0,0,0,1,0,0,0,0,0,1,0,0,0,0,0,0,0,0,0,0,0,0,0,0,0,0,0,0,0,0,0,0,0,0,0,0,0,0,0,0,0,0,0,0,0,0,0,0,0,0,0,0,0,0,0,0,0,0,0,0,0,0,0,0,0,0,0,0,0,0,0],"id":5,"left_children":[1,3,5,7,9,11,13,15,17,19,21,23,25,27,29,31,33,35,37,39,41,43,45,47,49,51,53,55,57,59,-1,61,63,65,67,69,71,73,75,77,79,81,83,85,87,89,91,93,95,97,99,101,103,105,107,109,-1,111,-1,113,115,-1,-1,-1,-1,-1,-1,-1,-1,-1,-1,-1,-1,-1,-1,-1,-1,-1,-1,-1,-1,-1,-1,-1,-1,-1,-1,-1,-1,-1,-1,-1,-1,-1,-1,-1,-1,-1,-1,-1,-1,-1,-1,-1,-1,-1,-1,-1,-1,-1,-1,-1,-1,-1,-1,-1,-1],"loss_changes":[1.4545131E2,1.660756E1,5.0583984E1,4.5968685E0,1.5422123E1,4.448535E1,6.6890434E1,3.61174E0,5.9946966E0,1.9535656E1,1.0425348E1,1.7409146E2,2.0357056E1,2.4344467E1,3.431267E1,2.7068872E0,3.9413223E0,2.5846138E0,5.964829E0,2.043962E1,1.4216112E1,8.066182E0,1.0807568E1,4.275363E1,2.8971931E1,1.8229553E1,7.816595E0,8.16675E0,1.6017563E1,1.3730415E1,0E0,2.10347E0,3.2929945E0,3.9172208E0,2.281786E0,3.6883512E0,2.5068789E0,2.8611693E0,5.0828333E0,3.3809216E1,7.0176506E0,2.2222395E1,2.9772049E1,1.0843327E0,9.444266E0,8.536718E0,9.069349E0,4.5104874E1,4.7497604E1,1.8742516E1,1.4909407E1,9.3269415E0,9.168945E0,1.3624642E0,1.0005711E1,1.3779907E0,0E0,8.065474E0,0E0,1.0343529E1,5.02496E1,0E0,0E0,0E0,0E0,0E0,0E0,0E0,0E0,0E0,0E0,0E0,0E0,0E0,0E0,0E0,0E0,0E0,0E0,0E0,0E0,0E0,0E0,0E0,0E0,0E0,0E0,0E0,0E0,0E0,0E0,0E0,0E0,0E0,0E0,0E0,0E0,0E0,0E0,0E0,0E0,0E0,0E0,0E0,0E0,0E0,0E0,0E0,0E0,0E0,0E0,0E0,0E0,0E0,0E0,0E0,0E0],"parents":[2147483647,0,0,1,1,2,2,3,3,4,4,5,5,6,6,7,7,8,8,9,9,10,10,11,11,12,12,13,13,14,14,15,15,16,16,17,17,18,18,19,19,20,20,21,21,22,22,23,23,24,24,25,25,26,26,27,27,28,28,29,29,31,31,32,32,33,33,34,34,35,35,36,36,37,37,38,38,39,39,40,40,41,41,42,42,43,43,44,44,45,45,46,46,47,47,48,48,49,49,50,50,51,51,52,52,53,53,54,54,55,55,57,57,59,59,60,60],"right_children":[2,4,6,8,10,12,14,16,18,20,22,24,26,28,30,32,34,36,38,40,42,44,46,48,50,52,54,56,58,60,-1,62,64,66,68,70,72,74,76,78,80,82,84,86,88,90,92,94,96,98,100,102,104,106,108,110,-1,112,-1,114,116,-1,-1,-1,-1,-1,-1,-1,-1,-1,-1,-1,-1,-1,-1,-1,-1,-1,-1,-1,-1,-1,-1,-1,-1,-1,-1,-1,-1,-1,-1,-1,-1,-1,-1,-1,-1,-1,-1,-1,-1,-1,-1,-1,-1,-1,-1,-1,-1,-1,-1,-1,-1,-1,-1,-1,-1],"split_conditions":[1.380075E4,8.046E2,9.4E1,6.2E1,7.1E1,5.78E2,4.80615E4,5.91E2,4E2,3.3E1,8.3E1,4.76E2,5.35E2,2.42E2,4E0,1.3E1,1.5E1,7.3E1,4.9E1,8E1,2.35E2,4.5E1,6.20322E3,2E0,1.22272E5,0E0,8.6E1,1.36E2,2.49E2,9.8E1,-2.8685233E-1,1.19509E5,1.2E1,3.3E1,3.868E5,3E0,1E0,1.16785E5,3E0,3E0,2.8E1,7.3E1,1.21E2,6.99E0,2.22E2,6.3E1,5.11E2,4.27E2,1.3E1,1.38E2,9.3E1,2.94E2,1.06E2,8.66062E5,7.79E2,1.27E2,3.3073524E-1,4.44E2,-2.7200004E-1,2.49E2,3E0,1.687308E-1,-1.5876612E-1,3.89075E-1,1.2745042E-1,2.0018835E-1,-2.5328216E-1,4.0800944E-1,6.711948E-2,-1.3744101E-1,1.9012459E-1,5.0609604E-2,2.7067506E-1,5.950634E-2,-2.7374494E-1,-1.0924489E-1,2.1146975E-1,-2.2214886E-2,3.844778E-1,2.739721E-1,-1.5672228E-1,1.4184923E-1,-9.55429E-2,3.426178E-1,-1.0032485E-1,-2.9758582E-1,-1.3796978E-4,-1.3256702E-1,3.4235787E-1,-8.7240614E-2,1.6130257E-1,-2.2511679E-1,2.8018364E-1,-1.8843858E-1,1.9561138E-3,5.128681E-1,-4.9304448E-2,6.7563105E-1,-5.6435507E-2,5.9714156E-1,1.3759984E-1,-1.240614E-1,1.7428121E-1,-2.2779854E-1,-1.6161436E-1,-2.6249224E-1,4.3106765E-2,-5.361871E-2,3.9264363E-1,-2.892311E-1,-7.5878695E-2,1.37968445E-2,6.310638E-1,6.385026E-1,1.2285853E-1,7.697097E-1,-2.6876405E-1],"split_indices":[2,2,7,12,12,0,2,2,2,12,5,1,6,6,10,12,7,12,7,6,6,7,2,11,4,11,12,5,6,7,0,4,7,6,4,10,9,4,10,6,0,7,5,3,0,7,6,1,12,5,5,6,6,4,1,5,0,1,0,6,6,0,0,0,0,0,0,0,0,0,0,0,0,0,0,0,0,0,0,0,0,0,0,0,0,0,0,0,0,0,0,0,0,0,0,0,0,0,0,0,0,0,0,0,0,0,0,0,0,0,0,0,0,0,0,0,0],"split_type":[0,0,0,0,0,0,0,0,0,0,0,0,0,0,0,0,0,0,0,0,0,0,0,0,0,0,0,0,0,0,0,0,0,0,0,0,0,0,0,0,0,0,0,0,0,0,0,0,0,0,0,0,0,0,0,0,0,0,0,0,0,0,0,0,0,0,0,0,0,0,0,0,0,0,0,0,0,0,0,0,0,0,0,0,0,0,0,0,0,0,0,0,0,0,0,0,0,0,0,0,0,0,0,0,0,0,0,0,0,0,0,0,0,0,0,0,0],"sum_hessian":[2.8295708E3,6.877899E2,2.141781E3,1.3548282E2,5.5230707E2,2.0385498E3,1.0323109E2,7.4563515E1,6.09193E1,4.1508624E2,1.3722081E2,1.1783181E3,8.602317E2,5.438481E1,4.884628E1,5.2917732E1,2.1645786E1,3.342095E1,2.7498352E1,1.9821475E2,2.1687149E2,2.12002E1,1.16020615E2,1.0936509E3,8.466726E1,8.3775946E2,2.2472246E1,4.2989418E1,1.1395392E1,4.261122E1,6.2350564E0,5.840839E0,4.7076893E1,5.983815E0,1.5661971E1,1.0401196E1,2.3019754E1,1.1063775E1,1.6434576E1,1.174239E2,8.0790855E1,1.503628E2,6.6508705E1,4.383908E0,1.681629E1,5.8504066E1,5.751655E1,8.31832E2,2.618189E2,2.5908092E1,5.8759167E1,3.5815502E1,8.01944E2,5.56966E0,1.6902586E1,4.1682983E1,1.3064363E0,8.110439E0,3.2849534E0,2.7353722E1,1.5257501E1,1.7505343E0,4.0903044E0,4.2524033E0,4.282449E1,4.4440417E0,1.5397737E0,1.3136878E1,2.5250936E0,5.319756E0,5.0814395E0,7.1861305E0,1.5833624E1,2.6625543E0,8.401221E0,6.8379664E0,9.596609E0,9.567494E1,2.174896E1,2.6709607E0,7.8119896E1,9.4889755E1,5.5473038E1,4.8120705E1,1.8388002E1,2.8341007E0,1.5498071E0,4.6540318E0,1.2162259E1,4.199715E1,1.6506918E1,5.4955345E1,2.5612018E0,6.985284E2,1.3330359E2,1.3302709E1,2.4851622E2,2.2442337E1,3.465755E0,6.448207E0,5.231096E1,1.8757801E1,1.70577E1,4.542956E2,3.4764835E2,4.146393E0,1.4232672E0,7.798403E0,9.104183E0,3.7834892E1,3.848088E0,2.7928572E0,5.317582E0,2.2600246E1,4.753476E0,6.3785014E0,8.879E0],"tree_param":{"num_deleted":"0","num_feature":"13","num_nodes":"117","size_leaf_vector":"1"}},{"base_weights":[-2.2101687E-1,8.883767E-2,-3.2955438E-1,5.911021E-1,5.2260593E-2,1.4278786E-1,-3.7651014E-1,6.961324E-1,-3.6571738E-1,-2.6764663E-2,2.3764363E-1,1.2102029E0,6.287273E-2,-3.1791347E-1,-6.3105744E-1,9.6263987E-1,4.2841834E-1,-2.2324881E-1,1.0977269E-1,-2.2200175E-1,1.7005917E-1,4.2588264E-1,-2.3504868E-1,1.4638706E0,-1.3532469E-1,-2.0490361E-2,7.156046E-1,-2.005168E-1,-5.211909E-1,-7.0285904E-1,4.97627E-1,-4.09299E-2,1.0312886E0,6.164791E-1,-3.5143912E-1,-1.0066743E-1,-5.672069E-1,5.7687607E-2,6.5083724E-1,-1.5765671E-1,6.557749E-1,-8.9921765E-2,-9.2883795E-1,1.2038974E-2,4.9026695E-1,2.2464663E-1,-3.673698E-1,-3.055878E-1,9.46946E-1,-3.9258036E-1,2.674126E-1,-6.63301E-1,-1.9047254E-1,-7.717701E-1,4.9202377E-1,1.4725922E0,-2.784464E-1,3.666578E-2,3.2629964E-1,-1.07410245E-1,2.253521E-1,-2.1985622E-1,1.6777924E-1,3.3878334E-2,-1.0861438E-1,-1.9563517E-1,8.154E-2,-1.3296624E-1,7.299694E-2,3.589735E-1,-2.9608784E-2,-1.3624579E-1,2.4442299E-1,3.251168E-1,1.2487173E-2,-1.9361262E-1,3.4288578E-2,-1.1849442E-1,-3.3509606E-1,1.9631047E-2,3.7440893E-1,7.00446E-3,-2.1482433E-1,1.0080103E-1,-2.313015E-1,1.5559477E-1,5.575255E-1,-1.4970376E-1,9.0241335E-2,9.476131E-1,1.6840002E-2,-2.1980776E-1,-8.6331986E-2,1.4210808E-1,-1.9320226E-1,2.990573E-1,-2.3867865E-1,2.302263E-1,-2.819913E-1,1.5081497E-1,7.7150875E-1],"categories":[],"categories_nodes":[],"categories_segments":[],"categories_sizes":[],"default_left":[0,0,0,0,0,0,0,0,0,0,1,0,0,0,0,0,0,0,0,0,0,0,0,0,0,0,0,0,0,0,0,0,0,0,0,0,0,0,0,0,0,0,0,0,0,0,0,0,0,0,0,0,0,0,0,0,0,0,0,0,0,0,0,0,0,0,0,0,0,0,0,0,0,0,0,0,0,0,0,0,0,0,0,0,0,0,0,0,0,0,0,0,0,0,0,0,0,0,0,0,0],"id":6,"left_children":[1,3,5,7,9,11,13,15,17,19,21,23,25,27,29,31,33,-1,-1,35,37,39,41,43,-1,45,47,49,51,53,55,-1,57,59,61,63,65,67,69,71,73,75,77,-1,-1,79,81,83,85,87,89,91,93,95,97,99,-1,-1,-1,-1,-1,-1,-1,-1,-1,-1,-1,-1,-1,-1,-1,-1,-1,-1,-1,-1,-1,-1,-1,-1,-1,-1,-1,-1,-1,-1,-1,-1,-1,-1,-1,-1,-1,-1,-1,-1,-1,-1,-1,-1,-1],"loss_changes":[8.741492E1,1.2366985E1,4.2738266E1,4.8484516E0,9.23781E0,1.4830045E1,2.5913437E1,2.551035E0,1.7057371E0,1.7049603E1,1.6866756E1,5.766468E0,8.918246E0,3.3906296E1,2.6817734E1,1.6506481E0,3.5198407E0,0E0,0E0,9.269931E0,1.1903311E1,1.8230112E1,5.385005E0,2.5410137E0,0E0,1.2503188E1,4.673765E0,8.144481E1,2.4365784E1,2.5697739E1,2.9334631E1,0E0,8.3841133E-1,2.6985621E0,2.1511292E0,9.307664E0,4.287628E0,1.6868305E1,1.7206211E1,1.1612565E1,2.5482353E1,5.2943487E0,4.9178123E-1,0E0,0E0,1.3964172E1,8.309078E0,1.5083739E0,5.038206E0,4.753501E1,1.610776E2,9.276962E0,4.7906998E1,1.3059662E1,7.5741243E0,1.1856613E1,0E0,0E0,0E0,0E0,0E0,0E0,0E0,0E0,0E0,0E0,0E0,0E0,0E0,0E0,0E0,0E0,0E0,0E0,0E0,0E0,0E0,0E0,0E0,0E0,0E0,0E0,0E0,0E0,0E0,0E0,0E0,0E0,0E0,0E0,0E0,0E0,0E0,0E0,0E0,0E0,0E0,0E0,0E0,0E0,0E0],"parents":[2147483647,0,0,1,1,2,2,3,3,4,4,5,5,6,6,7,7,8,8,9,9,10,10,11,11,12,12,13,13,14,14,15,15,16,16,19,19,20,20,21,21,22,22,23,23,25,25,26,26,27,27,28,28,29,29,30,30,32,32,33,33,34,34,35,35,36,36,37,37,38,38,39,39,40,40,41,41,42,42,45,45,46,46,47,47,48,48,49,49,50,50,51,51,52,52,53,53,54,54,55,55],"right_children":[2,4,6,8,10,12,14,16,18,20,22,24,26,28,30,32,34,-1,-1,36,38,40,42,44,-1,46,48,50,52,54,56,-1,58,60,62,64,66,68,70,72,74,76,78,-1,-1,80,82,84,86,88,90,92,94,96,98,100,-1,-1,-1,-1,-1,-1,-1,-1,-1,-1,-1,-1,-1,-1,-1,-1,-1,-1,-1,-1,-1,-1,-1,-1,-1,-1,-1,-1,-1,-1,-1,-1,-1,-1,-1,-1,-1,-1,-1,-1,-1,-1,-1,-1,-1],"split_conditions":[1.380075E4,3.7573E4,5.7972E4,8.75E2,2E0,0E0,8.4E1,4.45E2,7.1E1,1.33E2,1.25E2,5E0,9.3E1,6.19E2,5.5E1,1.2E1,8.53135E3,-2.2324881E-1,1.0977269E-1,8.53135E3,7.9E1,2.11E2,1.42E2,9.7E1,-1.3532469E-1,5.83E2,5.99E0,4.25E2,6.5E1,5.3E2,2.7774E4,-4.09299E-2,9E1,4.94E2,1.37E2,1E0,1.354469E4,4.1E2,2.42E2,6.5E1,4.83E2,1.28E2,5.34E2,1.2038974E-2,4.9026695E-1,4.79E2,3.494085E4,1.3289E4,3.9589E4,7.7E1,4.86E2,8.35E2,1E0,0E0,3E0,2.04267E4,-2.784464E-1,3.666578E-2,3.2629964E-1,-1.07410245E-1,2.253521E-1,-2.1985622E-1,1.6777924E-1,3.3878334E-2,-1.0861438E-1,-1.9563517E-1,8.154E-2,-1.3296624E-1,7.299694E-2,3.589735E-1,-2.9608784E-2,-1.3624579E-1,2.4442299E-1,3.251168E-1,1.2487173E-2,-1.9361262E-1,3.4288578E-2,-1.1849442E-1,-3.3509606E-1,1.9631047E-2,3.7440893E-1,7.00446E-3,-2.1482433E-1,1.0080103E-1,-2.313015E-1,1.5559477E-1,5.575255E-1,-1.4970376E-1,9.0241335E-2,9.476131E-1,1.6840002E-2,-2.1980776E-1,-8.6331986E-2,1.4210808E-1,-1.9320226E-1,2.990573E-1,-2.3867865E-1,2.302263E-1,-2.819913E-1,1.5081497E-1,7.7150875E-1],"split_indices":[2,4,4,0,11,11,12,0,7,6,5,10,7,0,7,7,2,0,0,2,7,1,5,5,0,0,3,1,12,6,2,0,1,0,5,11,2,0,6,7,1,5,0,0,0,1,2,4,4,12,0,1,11,9,10,2,0,0,0,0,0,0,0,0,0,0,0,0,0,0,0,0,0,0,0,0,0,0,0,0,0,0,0,0,0,0,0,0,0,0,0,0,0,0,0,0,0,0,0,0,0],"split_type":[0,0,0,0,0,0,0,0,0,0,0,0,0,0,0,0,0,0,0,0,0,0,0,0,0,0,0,0,0,0,0,0,0,0,0,0,0,0,0,0,0,0,0,0,0,0,0,0,0,0,0,0,0,0,0,0,0,0,0,0,0,0,0,0,0,0,0,0,0,0,0,0,0,0,0,0,0,0,0,0,0,0,0,0,0,0,0,0,0,0,0,0,0,0,0,0,0,0,0,0,0],"sum_hessian":[2.597378E3,6.7384796E2,1.92353E3,4.4712337E1,6.291356E2,1.7374416E2,1.7497859E3,4.0535225E1,4.17711E0,4.4170206E2,1.8743355E2,1.1116678E1,1.6262747E2,1.4241875E3,3.255984E2,1.901257E1,2.1522655E1,2.7417576E0,1.4353526E0,2.2168065E2,2.2002142E2,1.3412166E2,5.331189E1,9.747178E0,1.3694997E0,1.4506876E2,1.7558723E1,9.0406104E2,5.201265E2,3.064789E2,1.9119482E1,1.0596737E0,1.7952896E1,1.7509726E1,4.0129304E0,1.649832E2,5.669744E1,1.7924641E2,4.0775013E1,3.7994297E1,9.6127365E1,4.502348E1,8.288407E0,1.1736693E0,8.573509E0,8.520642E1,5.9862335E1,3.1837966E0,1.4374926E1,6.4108575E2,2.6297528E2,3.6309738E2,1.5702911E2,2.901023E2,1.6376616E1,1.1335388E1,7.784095E0,1.2333404E0,1.6719557E1,1.9249091E0,1.5584816E1,2.9660118E0,1.0469183E0,9.110328E1,7.387993E1,5.1689087E1,5.008354E0,4.809148E1,1.3115492E2,2.3250042E1,1.7524971E1,2.9524803E1,8.469494E0,5.6201138E1,3.9926224E1,1.1522629E1,3.350085E1,2.9675474E0,5.3208594E0,7.4655975E1,1.0550443E1,2.8670809E1,3.1191526E1,1.4554609E0,1.7283357E0,1.0846994E1,3.5279312E0,5.560191E2,8.506665E1,1.6958096E1,2.460172E2,3.056644E2,5.743298E1,6.370042E1,9.332869E1,3.313207E0,2.8678906E2,1.412435E1,2.2522657E0,6.7959046E0,4.5394835E0],"tree_param":{"num_deleted":"0","num_feature":"13","num_nodes":"101","size_leaf_vector":"1"}},{"base_weights":[-1.7806979E-1,6.025919E-2,-2.6810586E-1,6.2111205E-1,3.3016015E-2,-1.0953411E-1,-3.85089E-1,9.1000485E-1,-1.6090783E-1,-1.5758355E-1,1.1173578E-1,-1.0559107E-2,-5.554257E-1,-2.2693719E-1,-4.820504E-1,1.03198E0,1.8078123E-1,2.6128316E-1,-6.583784E-1,3.9245808E-1,-2.4287347E-1,1.6632289E-1,-2.7998593E-1,-2.9358283E-1,7.839838E-2,-6.6606534E-1,4.6312496E-1,-4.4495615E-1,5.47967E-2,-5.285987E-1,4.5714438E-1,1.139802E0,1.7412345E-1,-1.765308E-1,2.023848E-1,6.712177E-1,-1.3378555E-1,-2.5824296E-1,-7.455281E-2,1.9629886E0,1.5079014E-1,-1.1981748E-1,-7.911646E-1,1.23933904E-1,7.737333E-1,4.6722442E-1,-4.980904E-1,8.6006737E-1,-4.076953E-1,1.2380789E-1,-6.314385E-1,-7.1463394E-1,-6.1055228E-2,6.2070817E-1,6.421561E-2,-5.1219374E-1,8.349111E-2,8.8462925E-1,-8.8847816E-2,-5.44785E-1,8.923244E-1,1.0501544E0,-1.4932992E-1,3.603771E-1,2.9004222E-2,-1.6314632E-1,2.38338E-1,1.3128965E-1,-2.1297663E-1,-2.8660113E-2,2.9959905E-1,1.2545455E-1,7.8499836E-1,-1.324582E-1,2.1192627E-1,1.2531652E-1,-5.941222E-2,-2.5562042E-1,1.2951015E-1,7.740747E-2,-2.09825E-2,2.8858647E-1,-2.4883485E-1,4.8322707E-2,3.8433954E-1,4.6406597E-2,-2.0741074E-1,-1.289529E-1,4.1435024E-1,-3.4944154E-2,-2.1122974E-1,1.5786197E-2,4.6258175E-1,3.4794748E-2,-2.655663E-1,-1.2145304E-1,-2.3164527E-1,1.3252446E-1,-2.622021E-1,-1.9170557E-1,1.3907938E-1,2.2759645E-1,-1.6562058E-1,4.6370688E-1,-8.941358E-2,-1.9142458E-1,4.278411E-1,1.23981655E-1,-1.1690505E-1,-1.7208746E-1,8.068163E-2,4.8033005E-1,-1.3216987E-1,4.6882364E-1,-1.2807067E-1,-2.609014E-1,2.6700816E-1],"categories":[],"categories_nodes":[],"categories_segments":[],"categories_sizes":[],"default_left":[0,0,0,0,0,0,0,1,0,0,0,0,0,0,0,0,0,0,0,0,0,1,0,0,0,0,0,0,0,0,0,0,0,0,0,0,0,0,0,0,0,0,0,0,0,0,1,0,0,0,0,0,0,0,0,0,0,0,0,1,0,0,1,0,0,0,0,0,0,0,0,0,0,0,0,0,0,0,0,0,0,0,0,0,0,0,0,0,0,0,0,0,0,0,0,0,0,0,0,0,0,0,0,0,0,0,0,0,0,0,0,0,0,0,0,0,0],"id":7,"left_children":[1,3,5,7,9,11,13,15,17,19,21,23,25,27,29,31,33,35,37,39,41,43,45,47,49,51,53,55,57,59,61,63,65,67,-1,69,-1,-1,-1,71,73,75,77,79,81,83,85,87,89,91,93,95,97,-1,99,101,103,105,107,109,111,113,115,-1,-1,-1,-1,-1,-1,-1,-1,-1,-1,-1,-1,-1,-1,-1,-1,-1,-1,-1,-1,-1,-1,-1,-1,-1,-1,-1,-1,-1,-1,-1,-1,-1,-1,-1,-1,-1,-1,-1,-1,-1,-1,-1,-1,-1,-1,-1,-1,-1,-1,-1,-1,-1,-1],"loss_changes":[5.1931313E1,1.0127979E1,3.2535126E1,7.084922E0,9.5373335E0,3.2958855E1,1.5381836E1,1.8216362E0,2.090576E0,8.814962E0,9.660617E0,1.5438694E1,1.559684E1,2.3724154E1,2.7581512E1,1.5709534E0,9.0389895E-1,1.9394492E0,1.5759075E-1,9.319492E0,1.0804003E1,1.0080785E1,9.255365E0,1.96548E1,1.5119973E1,3.5642738E0,8.760398E0,7.7753906E0,2.0249271E1,1.420079E1,1.0970333E1,9.616928E-1,1.9089813E0,1.4156897E0,0E0,1.0947851E0,0E0,0E0,0E0,2.2333012E0,7.894223E0,5.679488E0,2.5597095E0,9.653978E0,8.520646E0,3.03916E0,5.5749464E0,9.6818E0,1.1494537E1,4.428073E1,5.4558163E0,1.7109184E0,4.5625896E0,0E0,3.7093194E0,1.020937E1,1.4644497E1,2.1573824E1,2.2087574E1,1.4005035E1,7.408471E0,1.2271481E1,1.2558689E1,0E0,0E0,0E0,0E0,0E0,0E0,0E0,0E0,0E0,0E0,0E0,0E0,0E0,0E0,0E0,0E0,0E0,0E0,0E0,0E0,0E0,0E0,0E0,0E0,0E0,0E0,0E0,0E0,0E0,0E0,0E0,0E0,0E0,0E0,0E0,0E0,0E0,0E0,0E0,0E0,0E0,0E0,0E0,0E0,0E0,0E0,0E0,0E0,0E0,0E0,0E0,0E0,0E0,0E0],"parents":[2147483647,0,0,1,1,2,2,3,3,4,4,5,5,6,6,7,7,8,8,9,9,10,10,11,11,12,12,13,13,14,14,15,15,16,16,17,17,18,18,19,19,20,20,21,21,22,22,23,23,24,24,25,25,26,26,27,27,28,28,29,29,30,30,31,31,32,32,33,33,35,35,39,39,40,40,41,41,42,42,43,43,44,44,45,45,46,46,47,47,48,48,49,49,50,50,51,51,52,52,54,54,55,55,56,56,57,57,58,58,59,59,60,60,61,61,62,62],"right_children":[2,4,6,8,10,12,14,16,18,20,22,24,26,28,30,32,34,36,38,40,42,44,46,48,50,52,54,56,58,60,62,64,66,68,-1,70,-1,-1,-1,72,74,76,78,80,82,84,86,88,90,92,94,96,98,-1,100,102,104,106,108,110,112,114,116,-1,-1,-1,-1,-1,-1,-1,-1,-1,-1,-1,-1,-1,-1,-1,-1,-1,-1,-1,-1,-1,-1,-1,-1,-1,-1,-1,-1,-1,-1,-1,-1,-1,-1,-1,-1,-1,-1,-1,-1,-1,-1,-1,-1,-1,-1,-1,-1,-1,-1,-1,-1,-1,-1],"split_conditions":[1.380075E4,0E0,1.93746E5,7.3E1,1E0,8E1,3.12724E4,1.41E2,1.341E3,9.6E1,8.1E1,2.1E1,1.199E1,2E0,9.4E1,7.31846E5,5.91E2,4.45E2,8.99E0,1.8E1,1.141903E4,1.51E2,5.91E2,0E0,4.11E2,5.5E1,3.4969E4,7.82E2,9.4E1,2.1957E5,9.8E1,8E1,9.5E1,2.4204E2,2.023848E-1,1.85E2,-1.3378555E-1,-2.5824296E-1,-7.455281E-2,1.182E3,8.8E1,2E0,8.9E1,5.78E2,6.2E1,8.99E0,8.2164E4,1.7E1,7.3E1,3.82E2,6.0265E4,1.92718E4,1.28086E5,6.2070817E-1,4.4E1,0E0,5.99E0,1.68E2,3.6E1,8.36621E5,5.2E1,3E0,1.26E2,3.603771E-1,2.9004222E-2,-1.6314632E-1,2.38338E-1,1.3128965E-1,-2.1297663E-1,-2.8660113E-2,2.9959905E-1,1.2545455E-1,7.8499836E-1,-1.324582E-1,2.1192627E-1,1.2531652E-1,-5.941222E-2,-2.5562042E-1,1.2951015E-1,7.740747E-2,-2.09825E-2,2.8858647E-1,-2.4883485E-1,4.8322707E-2,3.8433954E-1,4.6406597E-2,-2.0741074E-1,-1.289529E-1,4.1435024E-1,-3.4944154E-2,-2.1122974E-1,1.5786197E-2,4.6258175E-1,3.4794748E-2,-2.655663E-1,-1.2145304E-1,-2.3164527E-1,1.3252446E-1,-2.622021E-1,-1.9170557E-1,1.3907938E-1,2.2759645E-1,-1.6562058E-1,4.6370688E-1,-8.941358E-2,-1.9142458E-1,4.278411E-1,1.23981655E-1,-1.1690505E-1,-1.7208746E-1,8.068163E-2,4.8033005E-1,-1.3216987E-1,4.6882364E-1,-1.2807067E-1,-2.609014E-1,2.6700816E-1],"split_indices":[2,11,4,7,11,12,2,5,2,5,12,7,3,9,7,4,2,0,3,12,2,5,2,11,6,7,4,1,5,2,7,12,6,2,0,0,0,0,0,2,12,10,12,0,7,3,4,7,6,6,4,2,4,0,7,11,3,6,12,4,7,10,5,0,0,0,0,0,0,0,0,0,0,0,0,0,0,0,0,0,0,0,0,0,0,0,0,0,0,0,0,0,0,0,0,0,0,0,0,0,0,0,0,0,0,0,0,0,0,0,0,0,0,0,0,0,0],"split_type":[0,0,0,0,0,0,0,0,0,0,0,0,0,0,0,0,0,0,0,0,0,0,0,0,0,0,0,0,0,0,0,0,0,0,0,0,0,0,0,0,0,0,0,0,0,0,0,0,0,0,0,0,0,0,0,0,0,0,0,0,0,0,0,0,0,0,0,0,0,0,0,0,0,0,0,0,0,0,0,0,0,0,0,0,0,0,0,0,0,0,0,0,0,0,0,0,0,0,0,0,0,0,0,0,0,0,0,0,0,0,0,0,0,0,0,0,0],"sum_hessian":[2.4183613E3,6.631934E2,1.755168E3,2.9712193E1,6.334812E2,7.459552E2,1.00921277E3,2.1577429E1,8.134765E0,1.8486838E2,4.4861282E2,6.112902E2,1.3466501E2,3.848431E2,6.243697E2,1.812974E1,3.447689E0,4.6571407E0,3.4776237E0,2.4334131E1,1.6053424E2,3.9424896E2,5.4363873E1,1.4563698E2,4.6565323E2,1.2178251E2,1.28825035E1,2.1662732E2,1.6821579E2,5.9530255E2,2.906716E1,1.5813516E1,2.3162236E0,2.3731425E0,1.0745465E0,2.980488E0,1.6766527E0,1.5914241E0,1.8861995E0,2.2952554E0,2.2038876E1,1.3210396E2,2.8430288E1,3.6965604E2,2.459292E1,1.2024972E1,4.23389E1,1.2520514E1,1.3311646E2,4.3843158E2,2.7221657E1,1.12564896E2,9.21761E0,1.730254E0,1.1152249E1,1.9220293E2,2.4424397E1,2.4060444E1,1.4415535E2,5.892072E2,6.095305E0,1.4326827E1,1.4740332E1,1.4790539E1,1.0229775E0,1.130819E0,1.1854045E0,1.1864996E0,1.1866429E0,1.1038781E0,1.8766099E0,1.1699903E0,1.1252651E0,1.0766671E1,1.1272205E1,1.623045E1,1.1587351E2,2.7370358E1,1.059931E0,2.1832448E2,1.5133156E2,2.2366907E1,2.2260132E0,9.608623E0,2.4163496E0,9.717775E0,3.2621124E1,3.653042E0,8.867472E0,6.784862E1,6.526784E1,4.184627E2,1.9968853E1,7.0377073E0,2.018395E1,1.8885399E1,9.36795E1,5.9773097E0,3.2403004E0,3.8221583E0,7.330091E0,5.2988153E0,1.869041E2,4.4228935E0,2.0001503E1,6.265005E0,1.7795439E1,5.386927E1,9.028608E1,5.693244E2,1.988282E1,3.8479183E0,2.247387E0,1.0592752E1,3.7340746E0,8.802732E0,5.9375997E0],"tree_param":{"num_deleted":"0","num_feature":"13","num_nodes":"117","size_leaf_vector":"1"}},{"base_weights":[-1.3961908E-1,4.324938E-2,-2.1255559E-1,2.7624488E-1,-1.4048841E-2,-1.1786964E-1,-3.6111563E-1,4.5230433E-1,1.5506579E-1,5.9197456E-2,-2.2461979E-1,-2.0269406E-1,7.567487E-1,-4.217844E-1,1.48169E-1,2.3117034E-1,7.779468E-1,2.978495E-1,-1.624439E-2,-4.5652768E-1,1.07403286E-1,-2.6495595E-2,-4.9106252E-1,-1.3528855E-1,-6.348322E-1,1.2567627E0,3.3671975E-1,-6.3580793E-1,-3.2798237E-1,-6.909164E-1,4.6560994E-1,3.9843705E-1,-6.1269087E-1,1.1318733E-1,9.575142E-1,5.649098E-1,1.4408712E-1,2.7806252E-1,-4.217876E-1,4.7495934E-1,-7.9217136E-1,-8.6404935E-2,2.2874975E-1,-3.498651E-1,1.4704509E-1,5.232444E-1,-5.7850975E-1,-3.6646745E-1,-1.823627E-2,-2.3595793E-2,-7.8099513E-1,6.875351E-2,1.6673391E0,8.968979E-2,1.3070755E0,1.24819756E-1,-7.032311E-1,-5.3042597E-1,-9.793485E-2,-8.344529E-1,2.812208E-1,6.848139E-1,-2.7488455E-1,-2.1832865E-2,2.842224E-1,3.921147E-2,-3.0201715E-1,-6.1561063E-2,1.7817354E-1,-6.5387696E-2,3.1511074E-1,-2.871945E-2,2.5060663E-1,-2.3001291E-1,9.058073E-2,-4.7878407E-2,1.6566588E-1,-1.7748943E-1,1.6856703E-1,-1.7652187E-1,2.9035425E-1,-6.846438E-2,-2.6985276E-1,-1.727947E-1,4.3681584E-2,2.4556747E-1,-8.535478E-3,-2.4456672E-1,8.366874E-2,1.7731467E-1,-2.2817852E-2,4.4411188E-1,-1.00701064E-1,-2.2890021E-1,-4.8321005E-2,-6.6503356E-3,-1.9238637E-1,2.7806807E-1,-2.7560038E-2,5.4932034E-1,-2.2876035E-1,3.0614942E-1,-2.4820356E-1,-1.4661941E-1,2.937916E-1,3.779445E-1,8.854345E-1,3.026753E-1,-2.0086419E-2,6.9657594E-1,1.3510609E-1,3.3645537E-1,-2.6070666E-1,-2.1887793E-1,1.8553875E-1,-7.557855E-2,-2.5107735E-1,2.9230234E-1,-1.04595125E-1,-1.5199484E-2,-2.638747E-1,3.678736E-1,-3.817621E-2],"categories":[],"categories_nodes":[],"categories_segments":[],"categories_sizes":[],"default_left":[0,0,0,1,0,0,0,0,0,0,0,0,0,0,0,0,0,0,0,1,0,0,0,0,0,0,0,0,0,1,0,0,0,1,0,0,0,0,0,0,0,0,0,0,0,0,0,0,0,0,0,0,0,0,0,0,0,0,0,0,0,0,0,0,0,0,0,0,0,0,0,0,0,0,0,0,0,0,0,0,0,0,0,0,0,0,0,0,0,0,0,0,0,0,0,0,0,0,0,0,0,0,0,0,0,0,0,0,0,0,0,0,0,0,0,0,0,0,0,0,0,0,0],"id":8,"left_children":[1,3,5,7,9,11,13,15,17,19,21,23,25,27,29,31,33,35,37,39,41,43,45,47,49,51,53,55,57,59,61,63,65,67,69,71,73,75,77,79,81,83,85,87,89,91,93,95,97,99,101,103,105,107,109,111,113,115,117,119,-1,121,-1,-1,-1,-1,-1,-1,-1,-1,-1,-1,-1,-1,-1,-1,-1,-1,-1,-1,-1,-1,-1,-1,-1,-1,-1,-1,-1,-1,-1,-1,-1,-1,-1,-1,-1,-1,-1,-1,-1,-1,-1,-1,-1,-1,-1,-1,-1,-1,-1,-1,-1,-1,-1,-1,-1,-1,-1,-1,-1,-1,-1],"loss_changes":[3.0494987E1,8.715357E0,2.2944115E1,2.678749E0,8.105849E0,7.4306595E1,1.9701668E1,3.5651827E0,1.908808E0,9.746559E0,7.146085E0,2.6477512E1,1.818015E1,1.1198982E1,1.8540375E1,4.8168354E0,2.3518581E0,1.6640642E0,4.4537935E0,1.0860699E1,8.428279E0,4.4756484E0,5.4276886E0,2.1375004E1,1.0950829E1,1.9431713E1,1.1749624E1,8.912987E0,1.844331E1,5.2642183E0,1.5840589E1,7.2196956E0,1.8168302E0,9.663501E-1,1.9854555E0,2.793694E0,4.302628E0,2.6866493E0,2.951518E0,5.55278E0,1.3096666E0,1.5803251E1,3.341924E1,8.370143E0,5.1968923E0,4.6987343E0,4.0103474E0,2.5111938E1,3.6662663E1,3.528199E1,9.1153755E0,6.232604E0,1.1843666E1,5.9040866E0,7.6243114E0,1.5695471E1,5.964142E0,1.7801205E1,5.06445E1,5.9751034E-1,0E0,1.9466133E1,0E0,0E0,0E0,0E0,0E0,0E0,0E0,0E0,0E0,0E0,0E0,0E0,0E0,0E0,0E0,0E0,0E0,0E0,0E0,0E0,0E0,0E0,0E0,0E0,0E0,0E0,0E0,0E0,0E0,0E0,0E0,0E0,0E0,0E0,0E0,0E0,0E0,0E0,0E0,0E0,0E0,0E0,0E0,0E0,0E0,0E0,0E0,0E0,0E0,0E0,0E0,0E0,0E0,0E0,0E0,0E0,0E0,0E0,0E0,0E0,0E0],"parents":[2147483647,0,0,1,1,2,2,3,3,4,4,5,5,6,6,7,7,8,8,9,9,10,10,11,11,12,12,13,13,14,14,15,15,16,16,17,17,18,18,19,19,20,20,21,21,22,22,23,23,24,24,25,25,26,26,27,27,28,28,29,29,30,30,31,31,32,32,33,33,34,34,35,35,36,36,37,37,38,38,39,39,40,40,41,41,42,42,43,43,44,44,45,45,46,46,47,47,48,48,49,49,50,50,51,51,52,52,53,53,54,54,55,55,56,56,57,57,58,58,59,59,61,61],"right_children":[2,4,6,8,10,12,14,16,18,20,22,24,26,28,30,32,34,36,38,40,42,44,46,48,50,52,54,56,58,60,62,64,66,68,70,72,74,76,78,80,82,84,86,88,90,92,94,96,98,100,102,104,106,108,110,112,114,116,118,120,-1,122,-1,-1,-1,-1,-1,-1,-1,-1,-1,-1,-1,-1,-1,-1,-1,-1,-1,-1,-1,-1,-1,-1,-1,-1,-1,-1,-1,-1,-1,-1,-1,-1,-1,-1,-1,-1,-1,-1,-1,-1,-1,-1,-1,-1,-1,-1,-1,-1,-1,-1,-1,-1,-1,-1,-1,-1,-1,-1,-1,-1,-1],"split_conditions":[1.380075E4,8.046E2,5.78E2,1.75614E5,4E0,5.49E2,9.1E1,1.91E2,5.6E1,1.2E1,6.20322E3,8.6E1,5.61E2,1.14E2,1E0,8.7E1,2.2E1,4.9E2,4E2,1.03E2,3.95E2,1E0,8.8E1,3.3E1,8.2E1,4.79E2,2.75E2,8.6E1,1.06E2,1.52E2,6.9E1,6.99E0,9.5E1,7.5148E4,0E0,1.56E2,6.24E2,3E0,1.199E1,1.341E3,9.9557E4,3E0,5.78E2,5.53E2,8E1,5E1,1.22511E4,1.8E1,3.6E1,9.1E1,1.3289E4,5.53E2,4.78368E5,9.3E1,3.51E2,3.38366E4,8.72E2,6.7E1,1.72E2,1.64553E4,2.812208E-1,9.8E1,-2.7488455E-1,-2.1832865E-2,2.842224E-1,3.921147E-2,-3.0201715E-1,-6.1561063E-2,1.7817354E-1,-6.5387696E-2,3.1511074E-1,-2.871945E-2,2.5060663E-1,-2.3001291E-1,9.058073E-2,-4.7878407E-2,1.6566588E-1,-1.7748943E-1,1.6856703E-1,-1.7652187E-1,2.9035425E-1,-6.846438E-2,-2.6985276E-1,-1.727947E-1,4.3681584E-2,2.4556747E-1,-8.535478E-3,-2.4456672E-1,8.366874E-2,1.7731467E-1,-2.2817852E-2,4.4411188E-1,-1.00701064E-1,-2.2890021E-1,-4.8321005E-2,-6.6503356E-3,-1.9238637E-1,2.7806807E-1,-2.7560038E-2,5.4932034E-1,-2.2876035E-1,3.0614942E-1,-2.4820356E-1,-1.4661941E-1,2.937916E-1,3.779445E-1,8.854345E-1,3.026753E-1,-2.0086419E-2,6.9657594E-1,1.3510609E-1,3.3645537E-1,-2.6070666E-1,-2.1887793E-1,1.8553875E-1,-7.557855E-2,-2.5107735E-1,2.9230234E-1,-1.04595125E-1,-1.5199484E-2,-2.638747E-1,3.678736E-1,-3.817621E-2],"split_indices":[2,2,0,4,10,0,7,6,12,7,2,12,0,5,9,12,7,0,2,5,1,9,5,12,6,1,6,5,6,5,12,3,6,4,10,1,0,10,3,2,4,6,0,0,6,12,2,7,12,12,4,0,4,5,6,2,1,6,6,2,0,7,0,0,0,0,0,0,0,0,0,0,0,0,0,0,0,0,0,0,0,0,0,0,0,0,0,0,0,0,0,0,0,0,0,0,0,0,0,0,0,0,0,0,0,0,0,0,0,0,0,0,0,0,0,0,0,0,0,0,0,0,0],"split_type":[0,0,0,0,0,0,0,0,0,0,0,0,0,0,0,0,0,0,0,0,0,0,0,0,0,0,0,0,0,0,0,0,0,0,0,0,0,0,0,0,0,0,0,0,0,0,0,0,0,0,0,0,0,0,0,0,0,0,0,0,0,0,0,0,0,0,0,0,0,0,0,0,0,0,0,0,0,0,0,0,0,0,0,0,0,0,0,0,0,0,0,0,0,0,0,0,0,0,0,0,0,0,0,0,0,0,0,0,0,0,0,0,0,0,0,0,0,0,0,0,0,0,0],"sum_hessian":[2.2846714E3,6.51534E2,1.6331373E3,1.2784565E2,5.236883E2,9.985175E2,6.346198E2,5.100649E1,7.6839165E1,3.890705E2,1.3461781E2,9.109388E2,8.75787E1,5.672211E2,6.739869E1,3.139618E1,1.9610308E1,4.1506035E1,3.533313E1,3.2534386E1,3.5653613E2,7.783782E1,5.677999E1,7.891579E2,1.21780876E2,3.9073017E1,4.8505684E1,1.710855E2,3.9613562E2,1.8176523E1,4.9222168E1,2.6642962E1,4.753218E0,4.5173583E0,1.509295E1,1.4188682E1,2.7317356E1,2.0656696E1,1.4676434E1,8.507918E0,2.4026466E1,1.3739075E2,2.1914537E2,2.68292E1,5.1008617E1,4.111129E0,5.266886E1,2.6454645E2,5.2461145E2,2.3725407E1,9.805547E1,1.0335253E1,2.8737764E1,3.9533745E1,8.97194E0,1.3861131E1,1.5722437E2,2.1001505E2,1.8612059E2,1.71521E1,1.0244228E0,4.29186E1,6.303569E0,1.4803607E1,1.18393545E1,1.8781419E0,2.8750763E0,3.0622933E0,1.455065E0,1.0063243E0,1.4086625E1,4.3089213E0,9.87976E0,3.4652715E0,2.3852083E1,8.116922E0,1.2539773E1,1.2855353E1,1.8210801E0,2.6332042E0,5.8747144E0,4.3416114E0,1.9684855E1,4.3698208E1,9.369254E1,6.588251E1,1.5326286E2,1.5247614E1,1.1581588E1,1.650753E1,3.4501087E1,1.6021924E0,2.5089366E0,3.595184E1,1.6717024E1,1.17908875E2,1.4663759E2,3.707855E1,4.8753293E2,6.338478E0,1.7386929E1,1.9323784E0,9.612309E1,6.697791E0,3.6374612E0,2.33185E1,5.419264E0,4.9638515E0,3.4569893E1,3.3240933E0,5.6478467E0,6.8564796E0,7.0046515E0,1.5458899E2,2.6353817E0,1.1098831E2,9.902673E1,3.472411E1,1.5139648E2,1.04939E0,1.6102709E1,2.5444149E1,1.7474447E1],"tree_param":{"num_deleted":"0","num_feature":"13","num_nodes":"123","size_leaf_vector":"1"}},{"base_weights":[-1.114066E-1,4.4314584E-1,-1.3565654E-1,-5.1165545E-1,5.6651366E-1,-5.2553363E-2,-2.568103E-1,1.2244648E-1,-6.527955E-1,2.024652E0,4.0949064E-1,9.7009994E-2,-1.2382168E-1,-3.1522617E-1,3.8198188E-1,-7.798163E-1,2.6823373E-3,1.9622411E-1,6.844259E-1,5.4646E-1,-3.138398E-1,-1.817448E-1,2.2853942E-1,1.9780631E-1,-1.711163E-1,-1.3721246E-1,-4.3287107E-1,5.277468E-1,-8.1984776E-1,-1.3746988E-2,-2.8919047E-1,6.482669E-1,-2.2300257E-1,4.0617445E-1,-3.4604356E-1,-2.4764748E-1,2.9395506E-1,6.761358E-1,9.0942636E-2,-4.46452E-1,4.5786497E-1,-1.9968105E-2,-2.8034824E-1,-2.8627506E-1,1.6082038E-1,-4.700897E-1,1.574408E-1,9.4953015E-2,8.009932E-1,-2.7809814E-1,-1.4800784E-2,9.611541E-2,2.9969963E-1,-2.580698E-1,1.4016834E-1,2.2127508E-1,-1.9274862E-1,8.29558E-2,-9.445147E-2,2.0289764E-1,-2.7340826E-1,3.1493297E-1,-8.2603894E-2,-7.952319E-3,1.4536127E-1,-1.9994126E-1,6.411264E-3,-2.8011E-1,1.748501E-1,-1.3521561E-2,2.6124692E-1,-8.881402E-2,4.417899E-1,-1.4621072E-1,2.0451364E-3,-3.481893E-2,2.4594279E-1,-1.4790621E-1,1.5450247E-1,3.7732628E-1,-1.310134E-1,2.1477167E-1,-2.6274028E-1,2.7495262E-1,-2.615749E-1],"categories":[],"categories_nodes":[],"categories_segments":[],"categories_sizes":[],"default_left":[0,0,0,0,0,1,0,0,0,0,0,0,0,0,0,0,0,0,0,0,0,0,0,0,0,0,0,0,1,0,0,0,0,0,0,0,0,0,1,0,0,0,0,0,0,0,0,0,0,0,0,0,0,0,0,0,0,0,0,0,0,0,0,0,0,0,0,0,0,0,0,0,0,0,0,0,0,0,0,0,0,0,0,0,0],"id":9,"left_children":[1,3,5,7,9,11,13,-1,15,17,19,21,23,25,27,29,-1,-1,-1,31,33,35,37,39,41,43,45,47,49,-1,-1,51,53,55,-1,57,59,61,63,65,67,69,71,73,75,77,79,81,83,-1,-1,-1,-1,-1,-1,-1,-1,-1,-1,-1,-1,-1,-1,-1,-1,-1,-1,-1,-1,-1,-1,-1,-1,-1,-1,-1,-1,-1,-1,-1,-1,-1,-1,-1,-1],"loss_changes":[2.9454674E1,1.1104673E1,2.1079552E1,1.6985087E0,1.7895828E1,1.3270859E1,3.1917297E1,0E0,8.4316397E-1,1.2165432E0,7.6104584E0,1.47806225E1,1.2855378E1,1.6302094E1,1.3019035E1,1.0854812E0,0E0,0E0,0E0,5.118576E0,8.07954E0,4.13043E0,1.6787024E1,1.8386444E1,1.213562E1,1.3921656E1,1.039859E1,7.5733433E0,6.28181E-1,0E0,0E0,6.1580296E0,3.992483E0,3.0863938E0,0E0,4.109932E0,8.085566E0,2.3101936E1,9.7391815E0,3.2785602E0,1.4074862E1,6.962009E0,1.2181194E1,1.229571E1,1.9212395E1,1.0245316E1,1.9259924E1,1.640069E1,8.435381E0,0E0,0E0,0E0,0E0,0E0,0E0,0E0,0E0,0E0,0E0,0E0,0E0,0E0,0E0,0E0,0E0,0E0,0E0,0E0,0E0,0E0,0E0,0E0,0E0,0E0,0E0,0E0,0E0,0E0,0E0,0E0,0E0,0E0,0E0,0E0,0E0],"parents":[2147483647,0,0,1,1,2,2,3,3,4,4,5,5,6,6,8,8,9,9,10,10,11,11,12,12,13,13,14,14,15,15,19,19,20,20,21,21,22,22,23,23,24,24,25,25,26,26,27,27,28,28,31,31,32,32,33,33,35,35,36,36,37,37,38,38,39,39,40,40,41,41,42,42,43,43,44,44,45,45,46,46,47,47,48,48],"right_children":[2,4,6,8,10,12,14,-1,16,18,20,22,24,26,28,30,-1,-1,-1,32,34,36,38,40,42,44,46,48,50,-1,-1,52,54,56,-1,58,60,62,64,66,68,70,72,74,76,78,80,82,84,-1,-1,-1,-1,-1,-1,-1,-1,-1,-1,-1,-1,-1,-1,-1,-1,-1,-1,-1,-1,-1,-1,-1,-1,-1,-1,-1,-1,-1,-1,-1,-1,-1,-1,-1,-1],"split_conditions":[0E0,9.9E1,3.268568E4,2.52119E3,1.02E2,1.22272E5,9.4E1,1.2244648E-1,3.25839E5,1.583535E4,6.9E1,1E0,9.4E1,1.8087E5,4E0,2.4421E4,2.6823373E-3,1.9622411E-1,6.844259E-1,8E1,5.36E2,7.95E2,1E0,2.43E2,1.009887E4,1.24E2,1.5111808E5,9.5E1,3.83993E5,-1.3746988E-2,-2.8919047E-1,3E0,1.3E2,1.354469E4,-3.4604356E-1,1E0,7.2E1,6.82E2,1.0627E5,6.3E1,1.3E1,1.61E2,1.107408E6,6.5E1,8.776877E4,5.35E2,3.2E1,3E0,3.08E2,-2.7809814E-1,-1.4800784E-2,9.611541E-2,2.9969963E-1,-2.580698E-1,1.4016834E-1,2.2127508E-1,-1.9274862E-1,8.29558E-2,-9.445147E-2,2.0289764E-1,-2.7340826E-1,3.1493297E-1,-8.2603894E-2,-7.952319E-3,1.4536127E-1,-1.9994126E-1,6.411264E-3,-2.8011E-1,1.748501E-1,-1.3521561E-2,2.6124692E-1,-8.881402E-2,4.417899E-1,-1.4621072E-1,2.0451364E-3,-3.481893E-2,2.4594279E-1,-1.4790621E-1,1.5450247E-1,3.7732628E-1,-1.310134E-1,2.1477167E-1,-2.6274028E-1,2.7495262E-1,-2.615749E-1],"split_indices":[11,5,2,2,5,4,7,0,4,2,7,11,5,4,10,4,0,0,0,12,0,1,9,0,2,5,2,6,4,0,0,10,5,2,0,10,12,0,4,7,12,5,4,7,2,6,7,6,6,0,0,0,0,0,0,0,0,0,0,0,0,0,0,0,0,0,0,0,0,0,0,0,0,0,0,0,0,0,0,0,0,0,0,0,0],"split_type":[0,0,0,0,0,0,0,0,0,0,0,0,0,0,0,0,0,0,0,0,0,0,0,0,0,0,0,0,0,0,0,0,0,0,0,0,0,0,0,0,0,0,0,0,0,0,0,0,0,0,0,0,0,0,0,0,0,0,0,0,0,0,0,0,0,0,0,0,0,0,0,0,0,0,0,0,0,0,0,0,0,0,0,0,0],"sum_hessian":[2.1848164E3,9.081298E1,2.0940034E3,1.0030998E1,8.0781975E1,1.2428959E3,8.511075E2,1.0827657E0,8.948233E0,6.697165E0,7.4084816E1,4.0099933E2,8.418966E2,7.802612E2,7.084628E1,7.3575134E0,1.5907196E0,1.6164197E0,5.0807457E0,6.2495277E1,1.1589536E1,1.2843048E2,2.7256888E2,1.075203E2,7.343763E2,3.1133414E2,4.689271E2,6.368328E1,7.1630006E0,1.7261703E0,5.631343E0,5.5331867E1,7.1634088E0,6.5171466E0,5.072389E0,1.1322401E2,1.5206467E1,6.3168995E1,2.0939987E2,3.0714E1,7.68063E1,3.0857404E2,4.2580225E2,2.0756096E2,1.03773186E2,4.4130676E2,2.7620337E1,2.5167727E1,3.8515556E1,6.110234E0,1.0527667E0,2.9586424E1,2.5745445E1,3.5966415E0,3.5667672E0,5.1775455E0,1.3396013E0,1.2510667E1,1.0071334E2,1.1877401E1,3.3290656E0,4.528325E1,1.7885746E1,1.619931E2,4.7406765E1,2.0600763E1,1.0113237E1,5.7958803E0,7.1010414E1,3.010397E2,7.5343246E0,4.2284665E2,2.9556017E0,1.2270724E2,8.4853714E1,7.365139E1,3.0121794E1,4.317559E2,9.550858E0,9.293242E0,1.8327095E1,1.5509467E1,9.65826E0,3.6450752E1,2.0648005E0],"tree_param":{"num_deleted":"0","num_feature":"13","num_nodes":"85","size_leaf_vector":"1"}},{"base_weights":[-8.697749E-2,-1.4959406E-2,-1.9676235E-1,-1.4613847E-1,3.3582798E-1,-3.252723E-1,-5.235894E-2,-2.593797E-1,1.1934471E-1,1.2897232E0,1.7503268E-1,-2.1060114E-1,-7.243108E-1,1.1155849E0,-2.1633944E-1,4.8478648E-1,-3.0645192E-1,-1.2419102E-1,6.615732E-1,1.705406E0,-4.0927157E-1,-9.6783414E-2,5.898938E-1,-2.7389267E-1,7.4162537E-1,-8.1532544E-1,-1.2392913E-1,3.190788E-2,2.05678E0,-1.5534075E-1,-9.1824585E-1,-2.685127E-1,7.633337E-1,-6.9155805E-2,-4.467034E-1,1.2476766E0,-1.9360468E-1,1.0971155E0,-5.3019446E-1,-2.923606E-1,1.9752465E0,3.2625777E-1,-3.358152E-1,-1.4382666E-1,2.32464E0,6.363543E-1,-7.9196554E-1,-1.7300445E-1,-7.609766E-1,-6.806106E-2,3.2535083E0,-3.1971222E-1,-9.109879E-1,1.491893E0,-7.4244654E-1,-8.369771E-1,5.192285E-1,1.4290601E0,1.4285806E0,-3.516273E-2,-5.066148E-1,-9.7453374E-1,-2.4262322E-1,-2.1768035E-1,1.0230518E-1,-7.215037E-2,2.9905045E-1,-7.155294E-2,1.03152685E-1,-2.2179036E-1,-1.0561696E-1,1.0861245E0,1.4030376E-2,-1.8063422E-1,3.815739E-3,1.8812677E-1,1.0921504E0,-2.7488008E-1,-1.3921227E-2,-2.370431E-1,1.093531E-1,3.2691583E-1,7.8270394E-1,-2.4484587E-1,4.2662778E-1,-1.05039485E-1,8.228257E-2,-1.8430918E-1,1.2088444E0,2.3176116E-1,6.309315E-2,9.829857E-3,-3.1954616E-1,-6.6775404E-2,2.3075818E-1,-2.3989705E-2,-2.4952257E-1,3.1660694E-1,-1.16977505E-1,1.3144215E0,-5.479162E-2,2.2484472E-1,-1.671318E-1,-2.76696E-1,-5.77637E-2,1.0807724E0,-1.4804788E-1,7.7832185E-2,-2.6382458E-1,-4.685723E-2,-2.7594593E-1,-2.2611931E-2,4.8457608E-1,1.8658267E-1,6.2283564E-1,1.2701371E-1,-4.7561526E-2,-2.37208E-1,2.6989251E-2,-2.9960766E-1,-6.83165E-2,9.8591775E-2,-1.9306777E-1],"categories":[],"categories_nodes":[],"categories_segments":[],"categories_sizes":[],"default_left":[0,0,0,0,0,0,0,0,0,0,0,0,0,0,0,0,0,0,0,0,0,1,0,0,1,0,0,0,0,1,0,0,0,0,0,0,0,1,0,0,0,1,0,1,0,0,0,0,0,0,0,0,0,0,0,0,0,0,0,0,0,0,0,0,0,0,0,0,0,0,0,0,0,0,0,0,0,0,0,0,0,0,0,0,0,0,0,0,0,0,0,0,0,0,0,0,0,0,0,0,0,0,0,0,0,0,0,0,0,0,0,0,0,0,0,0,0,0,0,0,0,0,0],"id":10,"left_children":[1,3,5,7,9,11,13,15,17,19,21,23,25,27,29,31,33,35,37,39,41,43,45,47,49,51,53,55,57,59,61,63,65,67,69,71,73,75,77,79,81,83,-1,85,87,89,91,93,95,97,99,101,103,105,107,109,111,113,-1,115,117,119,121,-1,-1,-1,-1,-1,-1,-1,-1,-1,-1,-1,-1,-1,-1,-1,-1,-1,-1,-1,-1,-1,-1,-1,-1,-1,-1,-1,-1,-1,-1,-1,-1,-1,-1,-1,-1,-1,-1,-1,-1,-1,-1,-1,-1,-1,-1,-1,-1,-1,-1,-1,-1,-1,-1,-1,-1,-1,-1,-1,-1],"loss_changes":[1.6570705E1,5.8347305E1,1.5390957E1,2.777333E1,5.2710155E1,1.9941338E1,7.534822E1,2.2819096E1,3.6608406E1,3.574713E1,3.349189E1,2.0845959E1,5.2329063E0,4.9344555E1,1.461661E1,8.365108E0,2.02471E1,1.8498102E1,4.5162945E1,2.2176125E1,5.881714E0,2.0837307E1,8.048153E0,1.568689E1,4.4186752E1,3.7190475E0,1.5128431E1,1.0399139E1,3.7192924E1,1.3421881E1,8.039875E-1,3.3784463E0,6.9555397E0,1.599568E1,1.0339958E1,2.6523243E1,1.54613285E1,7.330108E1,4.376954E0,2.1317937E0,1.7039154E1,8.624882E0,0E0,1.54067E1,1.9954618E1,6.465683E0,9.964683E-1,1.268886E1,2.5811443E0,6.676723E0,2.130212E1,4.2821245E0,3.9523697E-1,1.9444408E1,1.7120142E0,3.5483265E-1,1.0349656E1,1.04381485E1,0E0,1.354738E1,1.3811953E1,2.2223473E-1,9.983688E-1,0E0,0E0,0E0,0E0,0E0,0E0,0E0,0E0,0E0,0E0,0E0,0E0,0E0,0E0,0E0,0E0,0E0,0E0,0E0,0E0,0E0,0E0,0E0,0E0,0E0,0E0,0E0,0E0,0E0,0E0,0E0,0E0,0E0,0E0,0E0,0E0,0E0,0E0,0E0,0E0,0E0,0E0,0E0,0E0,0E0,0E0,0E0,0E0,0E0,0E0,0E0,0E0,0E0,0E0,0E0,0E0,0E0,0E0,0E0,0E0],"parents":[2147483647,0,0,1,1,2,2,3,3,4,4,5,5,6,6,7,7,8,8,9,9,10,10,11,11,12,12,13,13,14,14,15,15,16,16,17,17,18,18,19,19,20,20,21,21,22,22,23,23,24,24,25,25,26,26,27,27,28,28,29,29,30,30,31,31,32,32,33,33,34,34,35,35,36,36,37,37,38,38,39,39,40,40,41,41,43,43,44,44,45,45,46,46,47,47,48,48,49,49,50,50,51,51,52,52,53,53,54,54,55,55,56,56,57,57,59,59,60,60,61,61,62,62],"right_children":[2,4,6,8,10,12,14,16,18,20,22,24,26,28,30,32,34,36,38,40,42,44,46,48,50,52,54,56,58,60,62,64,66,68,70,72,74,76,78,80,82,84,-1,86,88,90,92,94,96,98,100,102,104,106,108,110,112,114,-1,116,118,120,122,-1,-1,-1,-1,-1,-1,-1,-1,-1,-1,-1,-1,-1,-1,-1,-1,-1,-1,-1,-1,-1,-1,-1,-1,-1,-1,-1,-1,-1,-1,-1,-1,-1,-1,-1,-1,-1,-1,-1,-1,-1,-1,-1,-1,-1,-1,-1,-1,-1,-1,-1,-1,-1,-1,-1,-1,-1,-1,-1,-1],"split_conditions":[5.78E2,4.27E2,1.44E2,2E0,4.86E2,6.9E1,1.75E2,0E0,7.8E1,1.25E2,5.49E2,6.7E1,6.1146E5,1.34E2,8.380685E4,3E0,1.59584E5,3E1,1.77E2,9.7E1,4.5E2,1.107408E6,5.31E2,1.41E2,1.49E2,4.69995E3,5.99E0,1.55E2,7.737E4,1.3E2,9.4E1,1.99E2,9.9E1,2.35E2,1.9E1,1.4E1,2.4E1,1.02E2,4.4E1,1.77E2,1.009887E4,2.06225E5,-3.358152E-1,1.29E2,6.7E1,4.853155E4,5.99E0,1.06E2,8.046E2,1.594505E4,9.87E2,5.69E2,8.72E2,3E0,7.2E1,8.046E2,7.68E2,1.53E2,1.4285806E0,2.8E1,9.27E2,5.3E2,1.221395E5,-2.1768035E-1,1.0230518E-1,-7.215037E-2,2.9905045E-1,-7.155294E-2,1.03152685E-1,-2.2179036E-1,-1.0561696E-1,1.0861245E0,1.4030376E-2,-1.8063422E-1,3.815739E-3,1.8812677E-1,1.0921504E0,-2.7488008E-1,-1.3921227E-2,-2.370431E-1,1.093531E-1,3.2691583E-1,7.8270394E-1,-2.4484587E-1,4.2662778E-1,-1.05039485E-1,8.228257E-2,-1.8430918E-1,1.2088444E0,2.3176116E-1,6.309315E-2,9.829857E-3,-3.1954616E-1,-6.6775404E-2,2.3075818E-1,-2.3989705E-2,-2.4952257E-1,3.1660694E-1,-1.16977505E-1,1.3144215E0,-5.479162E-2,2.2484472E-1,-1.671318E-1,-2.76696E-1,-5.77637E-2,1.0807724E0,-1.4804788E-1,7.7832185E-2,-2.6382458E-1,-4.685723E-2,-2.7594593E-1,-2.2611931E-2,4.8457608E-1,1.8658267E-1,6.2283564E-1,1.2701371E-1,-4.7561526E-2,-2.37208E-1,2.6989251E-2,-2.9960766E-1,-6.83165E-2,9.8591775E-2,-1.9306777E-1],"split_indices":[0,1,6,11,0,12,6,11,12,5,0,12,4,5,2,10,4,1,6,5,1,4,1,5,5,2,3,6,2,5,7,6,5,6,6,12,12,5,7,6,2,4,0,5,7,2,3,6,2,2,0,1,1,10,12,2,1,5,0,7,0,6,2,0,0,0,0,0,0,0,0,0,0,0,0,0,0,0,0,0,0,0,0,0,0,0,0,0,0,0,0,0,0,0,0,0,0,0,0,0,0,0,0,0,0,0,0,0,0,0,0,0,0,0,0,0,0,0,0,0,0,0,0],"split_type":[0,0,0,0,0,0,0,0,0,0,0,0,0,0,0,0,0,0,0,0,0,0,0,0,0,0,0,0,0,0,0,0,0,0,0,0,0,0,0,0,0,0,0,0,0,0,0,0,0,0,0,0,0,0,0,0,0,0,0,0,0,0,0,0,0,0,0,0,0,0,0,0,0,0,0,0,0,0,0,0,0,0,0,0,0,0,0,0,0,0,0,0,0,0,0,0,0,0,0,0,0,0,0,0,0,0,0,0,0,0,0,0,0,0,0,0,0,0,0,0,0,0,0],"sum_hessian":[2.0952068E3,1.2659132E3,8.292937E2,9.2178827E2,3.441249E2,4.3813162E2,3.9116205E2,6.461833E2,2.7560495E2,4.862762E1,2.9549728E2,3.4151788E2,9.661375E1,4.744365E1,3.437184E2,3.788942E1,6.082939E2,1.9071739E2,8.488757E1,3.906584E1,9.561778E0,1.789901E2,1.16507195E2,3.2090094E2,2.0616926E1,8.358475E1,1.3028999E1,2.2533195E1,2.4910452E1,3.1735977E2,2.635862E1,1.0237983E1,2.7651436E1,2.2652383E2,3.8177005E2,8.367644E0,1.8234975E2,6.2225956E1,2.2661621E1,4.638825E0,3.4427017E1,4.962358E0,4.59942E0,1.7650163E2,2.488459E0,1.1323939E2,3.2678084E0,2.6696124E2,5.3939697E1,1.632696E1,4.2899675E0,1.422568E1,6.935906E1,3.215844E0,9.813156E0,7.838954E0,1.4694241E1,2.1459206E1,3.4512472E0,2.3728116E2,8.007862E1,2.3923101E1,2.4355178E0,5.741778E0,4.496205E0,5.2125235E0,2.2438913E1,1.60948E2,6.5575836E1,9.164412E1,2.9012592E2,2.1348693E0,6.2327747E0,6.0548626E1,1.2180112E2,5.357219E1,8.653767E0,1.2106505E1,1.0555116E1,2.5235584E0,2.1152663E0,1.5495474E1,1.8931543E1,2.5545037E0,2.407854E0,1.1829409E2,5.8207542E1,1.1483814E0,1.3400778E0,8.519419E1,2.8045195E1,1.0320872E0,2.2357213E0,2.5434111E2,1.2620139E1,5.2778854E0,4.866181E1,3.1285026E0,1.3198457E1,3.0226924E0,1.2672751E0,2.1927326E0,1.20329485E1,6.800267E1,1.3563921E0,1.1639221E0,2.0519218E0,1.0726757E0,8.74048E0,1.163435E0,6.675519E0,1.0129917E1,4.5643234E0,1.0421269E1,1.1037935E1,4.9791813E1,1.8748935E2,5.4026806E1,2.6051819E1,2.2846764E1,1.0763383E0,1.0787752E0,1.3567426E0],"tree_param":{"num_deleted":"0","num_feature":"13","num_nodes":"123","size_leaf_vector":"1"}},{"base_weights":[-7.3786564E-2,2.3122491E-1,-9.551301E-2,6.144675E-1,1.0445987E-1,7.0255876E-2,-1.350416E-1,8.429516E-1,-5.357348E-1,-3.7368008E-1,2.4437825E-1,1.6376047E-1,-1.10348046E-1,-9.136817E-2,-3.470481E-1,1.2680523E0,1.1715906E-1,-8.4416544E-1,1.1814519E-1,3.142467E-1,-6.16766E-1,-7.530094E-2,4.160567E-1,4.127938E-1,1.3452722E-3,-2.0859234E-1,3.8544294E-1,-2.7898282E-1,-3.2698516E-2,-4.1090378E-1,5.274431E-1,1.6504767E0,2.2737566E-1,-5.262953E-1,1.0047218E0,-4.8710648E-2,-2.9634228E-1,-1.4020242E-1,7.0669377E-1,1.8517996E-1,-7.34385E-1,-4.1161832E-1,4.237777E-1,9.602329E-1,2.4167642E-1,-3.29091E-1,4.8147747E-1,-2.6950777E-1,1.9762473E-1,2.023115E-2,-4.1883564E-1,-4.6893516E-1,8.5388094E-1,-2.7651183E-2,-6.803808E-1,7.7322793E-1,-5.8288045E-2,-4.902705E-1,1.7076254E-1,-2.5644454E-1,7.4357283E-1,2.1567373E-1,5.929133E-1,-2.1032293E-1,3.7381887E-1,-2.5041333E-1,1.6993712E-1,5.060152E-1,-5.0358266E-2,2.7002436E-1,1.303442E-2,-2.6578498E-1,3.130476E-2,-1.6320507E-1,1.7736182E-1,1.6963314E-1,-1.7189947E-1,3.5438916E-1,-1.0129455E-1,1.372691E-1,-9.6564464E-2,4.6097554E-2,-2.0496659E-1,1.1046819E-1,2.9752484E-1,-2.0845443E-1,-1.82947E-2,3.6059672E-1,3.7407797E-2,-2.4789955E-1,3.3066705E-2,1.9134438E-1,-1.5478843E-1,4.6375852E-2,-2.3045123E-1,-1.728776E-2,3.5446587E-1,-3.350469E-2,1.5163642E0,3.0275846E-1,-2.4199153E-1,6.60841E-2,1.0204389E0,-7.964892E-3,-1.495852E-1,-4.8196778E-2,-2.1921155E-1,1.7877875E-1,-1.5502188E-1,2.8817675E-1,-2.2510928E-1],"categories":[],"categories_nodes":[],"categories_segments":[],"categories_sizes":[],"default_left":[0,0,0,0,0,0,0,0,0,0,0,0,0,0,0,0,0,0,0,0,0,0,0,0,0,0,1,0,0,0,0,0,0,0,0,0,0,0,0,0,0,0,0,0,0,0,0,0,0,0,0,1,0,0,0,0,0,0,1,0,0,0,0,0,0,0,0,0,0,0,0,0,0,0,0,0,0,0,0,0,0,0,0,0,0,0,0,0,0,0,0,0,0,0,0,0,0,0,0,0,0,0,0,0,0,0,0,0,0,0,0],"id":11,"left_children":[1,3,5,7,9,11,13,15,17,19,21,23,25,27,29,31,33,35,-1,37,39,41,43,45,47,49,51,53,55,57,59,61,63,65,67,-1,-1,-1,69,-1,71,73,75,77,79,81,83,85,87,89,91,93,95,97,99,101,103,105,107,-1,109,-1,-1,-1,-1,-1,-1,-1,-1,-1,-1,-1,-1,-1,-1,-1,-1,-1,-1,-1,-1,-1,-1,-1,-1,-1,-1,-1,-1,-1,-1,-1,-1,-1,-1,-1,-1,-1,-1,-1,-1,-1,-1,-1,-1,-1,-1,-1,-1,-1,-1],"loss_changes":[1.3470556E1,6.5058866E0,1.2427763E1,9.231618E0,6.9705915E0,6.1913652E0,1.4140251E1,8.570934E0,2.0951438E0,4.1527185E0,4.430356E0,9.75767E0,6.1834793E0,1.3975819E1,1.4796307E1,6.677141E0,7.119595E0,3.2287335E-1,0E0,2.4294562E0,3.0413055E0,5.017264E0,4.7310505E0,5.011034E0,7.8697352E0,5.0706644E0,8.834497E0,3.0501501E1,2.0028776E1,1.1342636E1,6.0744243E0,2.46484E0,6.474384E0,2.9487529E0,4.4367223E0,0E0,0E0,0E0,5.963261E-1,0E0,2.2199001E0,2.6775565E0,2.0337915E0,3.9440908E0,5.128919E0,1.5860658E0,4.6952553E0,5.474546E0,6.136998E0,4.002297E0,5.9617825E0,1.6315502E0,4.2392015E0,8.04608E1,2.5654388E1,4.2689537E1,1.3124955E1,1.6910507E1,9.083922E0,0E0,5.9984245E0,0E0,0E0,0E0,0E0,0E0,0E0,0E0,0E0,0E0,0E0,0E0,0E0,0E0,0E0,0E0,0E0,0E0,0E0,0E0,0E0,0E0,0E0,0E0,0E0,0E0,0E0,0E0,0E0,0E0,0E0,0E0,0E0,0E0,0E0,0E0,0E0,0E0,0E0,0E0,0E0,0E0,0E0,0E0,0E0,0E0,0E0,0E0,0E0,0E0,0E0],"parents":[2147483647,0,0,1,1,2,2,3,3,4,4,5,5,6,6,7,7,8,8,9,9,10,10,11,11,12,12,13,13,14,14,15,15,16,16,17,17,19,19,20,20,21,21,22,22,23,23,24,24,25,25,26,26,27,27,28,28,29,29,30,30,31,31,32,32,33,33,34,34,38,38,40,40,41,41,42,42,43,43,44,44,45,45,46,46,47,47,48,48,49,49,50,50,51,51,52,52,53,53,54,54,55,55,56,56,57,57,58,58,60,60],"right_children":[2,4,6,8,10,12,14,16,18,20,22,24,26,28,30,32,34,36,-1,38,40,42,44,46,48,50,52,54,56,58,60,62,64,66,68,-1,-1,-1,70,-1,72,74,76,78,80,82,84,86,88,90,92,94,96,98,100,102,104,106,108,-1,110,-1,-1,-1,-1,-1,-1,-1,-1,-1,-1,-1,-1,-1,-1,-1,-1,-1,-1,-1,-1,-1,-1,-1,-1,-1,-1,-1,-1,-1,-1,-1,-1,-1,-1,-1,-1,-1,-1,-1,-1,-1,-1,-1,-1,-1,-1,-1,-1,-1,-1],"split_conditions":[3.7573E4,4.8E1,4.69995E3,8.09E2,1.06E2,7.04E2,8.1E1,2E0,9.9E1,6.20322E3,1.05E2,1.064E3,1.75845E3,2.5E1,5.35E2,4.87E2,3.58E2,8.53135E3,1.1814519E-1,2.8E1,0E0,2E0,4.4E1,1.3E1,1.341E3,8.046E2,1.54477E5,7.3E1,2.7E1,5.5E1,7.89E2,1.95E2,8.08E2,8.144555E4,3.73955E4,-4.8710648E-2,-2.9634228E-1,-1.4020242E-1,8.1E1,1.8517996E-1,2E0,4.7E2,2.6865E4,1.3E2,3.08E2,1.22E2,6.49E2,2.2E1,2E0,9.9E1,9.9E1,5.1808E4,3E0,7E1,5.4E1,3.08E2,4.21E2,9.5E1,8.7E1,-2.5644454E-1,4E0,2.1567373E-1,5.929133E-1,-2.1032293E-1,3.7381887E-1,-2.5041333E-1,1.6993712E-1,5.060152E-1,-5.0358266E-2,2.7002436E-1,1.303442E-2,-2.6578498E-1,3.130476E-2,-1.6320507E-1,1.7736182E-1,1.6963314E-1,-1.7189947E-1,3.5438916E-1,-1.0129455E-1,1.372691E-1,-9.6564464E-2,4.6097554E-2,-2.0496659E-1,1.1046819E-1,2.9752484E-1,-2.0845443E-1,-1.82947E-2,3.6059672E-1,3.7407797E-2,-2.4789955E-1,3.3066705E-2,1.9134438E-1,-1.5478843E-1,4.6375852E-2,-2.3045123E-1,-1.728776E-2,3.5446587E-1,-3.350469E-2,1.5163642E0,3.0275846E-1,-2.4199153E-1,6.60841E-2,1.0204389E0,-7.964892E-3,-1.495852E-1,-4.8196778E-2,-2.1921155E-1,1.7877875E-1,-1.5502188E-1,2.8817675E-1,-2.2510928E-1],"split_indices":[4,6,2,1,6,0,12,9,7,2,5,2,2,12,6,1,1,2,0,7,10,11,12,12,2,2,4,6,12,7,0,1,0,2,2,0,0,0,7,0,11,6,4,5,6,5,0,7,10,5,5,4,6,6,0,6,6,6,5,0,10,0,0,0,0,0,0,0,0,0,0,0,0,0,0,0,0,0,0,0,0,0,0,0,0,0,0,0,0,0,0,0,0,0,0,0,0,0,0,0,0,0,0,0,0,0,0,0,0,0,0],"split_type":[0,0,0,0,0,0,0,0,0,0,0,0,0,0,0,0,0,0,0,0,0,0,0,0,0,0,0,0,0,0,0,0,0,0,0,0,0,0,0,0,0,0,0,0,0,0,0,0,0,0,0,0,0,0,0,0,0,0,0,0,0,0,0,0,0,0,0,0,0,0,0,0,0,0,0,0,0,0,0,0,0,0,0,0,0,0,0,0,0,0,0,0,0,0,0,0,0,0,0,0,0,0,0,0,0,0,0,0,0,0,0],"sum_hessian":[2.0284023E3,1.3423744E2,1.8941649E3,3.240915E1,1.0182829E2,3.6455847E2,1.5296064E3,2.726097E1,5.148178E0,2.2674057E1,7.915424E1,2.402608E2,1.2429766E2,1.2695166E3,2.600899E2,1.6720531E1,1.0540438E1,3.9345348E0,1.2136432E0,5.8437257E0,1.683033E1,2.785233E1,5.130191E1,9.4232025E1,1.4602878E2,1.0422421E2,2.007345E1,3.015287E2,9.6798785E2,2.4288452E2,1.720539E1,1.1798788E1,4.921744E0,6.3464785E0,4.193959E0,1.0554097E0,2.879125E0,1.8896013E0,3.954124E0,1.094897E0,1.5735434E1,1.674411E1,1.1108219E1,1.1356364E1,3.994555E1,7.663505E0,8.656852E1,6.120152E1,8.4827255E1,5.0339615E1,5.3884594E1,7.10807E0,1.2965381E1,1.8608327E2,1.1544542E2,2.8890266E1,9.390976E2,2.1386093E2,2.9023586E1,1.9268854E0,1.5278505E1,3.8888147E0,7.9099736E0,2.7380311E0,2.1837125E0,5.1336956E0,1.212783E0,2.3744643E0,1.819495E0,2.7849965E0,1.1691275E0,1.3279454E1,2.4559793E0,1.51954365E1,1.548673E0,1.0104808E1,1.0034112E0,9.780335E0,1.5760286E0,2.9017597E1,1.092795E1,3.4824052E0,4.1811E0,7.2254036E1,1.431449E1,1.9366486E1,4.1835033E1,4.6946883E0,8.013256E1,4.0507874E0,4.628883E1,4.067423E0,4.9817173E1,2.461793E0,4.646277E0,3.6463165E0,9.319064E0,1.8401866E2,2.0646138E0,7.540847E0,1.0790458E2,2.4764036E1,4.126229E0,8.769485E2,6.21491E1,9.090561E1,1.22955315E2,1.801556E1,1.1008027E1,1.3652314E1,1.6261908E0],"tree_param":{"num_deleted":"0","num_feature":"13","num_nodes":"111","size_leaf_vector":"1"}},{"base_weights":[-5.7789538E-2,3.0917785E-1,-7.47994E-2,3.8755804E-1,-4.2143792E-1,-1.729202E-2,-1.6598512E-1,4.1936752E-1,-2.9874343E-1,-6.745702E-1,-1.8720499E-3,-2.4613252E-2,9.030118E-1,-2.1635088E-1,3.2083386E-1,5.95862E-1,1.1917633E-1,-7.60957E-1,-4.309451E-2,2.2347437E-1,-2.3883653E-1,2.7141975E-2,-1.5322773E-1,1.2691511E0,-1.2855504E-1,-1.8532413E-1,-8.104492E-1,4.083847E-1,-2.6694918E-1,-2.631637E-1,7.696849E-1,-4.5347926E-1,5.934852E-1,-6.77762E-2,-2.5933668E-1,-1.2779342E-1,1.17278226E-1,-5.650507E-1,-2.8769036E-3,5.826603E-1,4.9555758E-1,-2.137973E-1,2.4331398E-1,-8.629167E-1,3.1414878E-2,2.7024156E-1,1.1106492E0,3.367699E-2,-2.638552E-1,-1.4083172E-2,2.969122E-1,-2.1002212E-1,2.399653E-1,3.8859907E-1,7.8240365E-2,6.8534915E-3,-1.3307391E-1,7.1454E-2,-6.212725E-2,7.5784016E-1,-1.998508E-1,1.3888429E-1,-3.7284616E-2,3.7776864E-1,-1.9691072E-1,-3.0094024E-2,-1.13427214E-1,2.9785895E-1,-1.2076581E-1,-1.3716775E-2,-2.6718792E-1,-1.14002876E-1,1.7800522E-1,-3.3414565E-2,3.7622014E-1],"categories":[],"categories_nodes":[],"categories_segments":[],"categories_sizes":[],"default_left":[0,0,0,0,0,0,0,0,0,0,0,0,0,0,0,0,0,0,0,0,0,0,0,0,0,0,0,1,0,0,0,0,0,0,0,0,0,0,0,0,0,0,0,0,0,0,0,0,0,0,0,0,0,0,0,0,0,0,0,0,0,0,0,0,0,0,0,0,0,0,0,0,0,0,0],"id":12,"left_children":[1,3,5,7,9,11,13,15,-1,17,19,21,23,25,27,29,31,33,-1,-1,-1,35,37,39,-1,41,43,45,-1,47,49,51,53,-1,-1,55,57,59,61,63,-1,65,67,69,-1,71,73,-1,-1,-1,-1,-1,-1,-1,-1,-1,-1,-1,-1,-1,-1,-1,-1,-1,-1,-1,-1,-1,-1,-1,-1,-1,-1,-1,-1],"loss_changes":[1.2314205E1,5.1696815E0,9.869461E0,3.9148016E0,9.4918334E-1,7.808691E0,1.7919312E1,4.0823164E0,0E0,1.4656067E-1,3.1852078E0,7.6424546E0,5.003444E0,1.2021864E1,7.640916E0,7.536564E0,8.492193E0,5.7513714E-2,0E0,0E0,0E0,1.1453761E1,2.0394976E1,9.887848E-1,0E0,7.7271194E0,1.6498508E0,5.977998E0,0E0,2.1838639E0,7.432131E0,4.974228E0,3.6297708E0,0E0,0E0,1.4363506E1,2.0377396E1,2.9219246E1,1.3761494E1,4.3501434E0,0E0,1.0966623E1,1.958941E1,6.572952E-1,0E0,1.1864811E1,1.9476643E0,0E0,0E0,0E0,0E0,0E0,0E0,0E0,0E0,0E0,0E0,0E0,0E0,0E0,0E0,0E0,0E0,0E0,0E0,0E0,0E0,0E0,0E0,0E0,0E0,0E0,0E0,0E0,0E0],"parents":[2147483647,0,0,1,1,2,2,3,3,4,4,5,5,6,6,7,7,9,9,10,10,11,11,12,12,13,13,14,14,15,15,16,16,17,17,21,21,22,22,23,23,25,25,26,26,27,27,29,29,30,30,31,31,32,32,35,35,36,36,37,37,38,38,39,39,41,41,42,42,43,43,45,45,46,46],"right_children":[2,4,6,8,10,12,14,16,-1,18,20,22,24,26,28,30,32,34,-1,-1,-1,36,38,40,-1,42,44,46,-1,48,50,52,54,-1,-1,56,58,60,62,64,-1,66,68,70,-1,72,74,-1,-1,-1,-1,-1,-1,-1,-1,-1,-1,-1,-1,-1,-1,-1,-1,-1,-1,-1,-1,-1,-1,-1,-1,-1,-1,-1,-1],"split_conditions":[0E0,7.3E1,3.29044E4,1.2839427E5,1.2E2,5.35E2,9.4E1,6E2,-2.9874343E-1,4.08E2,5.09E2,7.1E1,4E0,9.2E1,3.08E2,1.7E1,8.78E2,1.341E3,-4.309451E-2,2.2347437E-1,-2.3883653E-1,2.2E1,7.7E1,8.6E1,-1.2855504E-1,1.5111808E5,1.5111808E5,1.36E2,-2.6694918E-1,2E0,1.98E2,4.63E2,7.76E2,-6.77762E-2,-2.5933668E-1,1.7E1,8.2E1,0E0,7.9E1,3.2E1,4.9555758E-1,6.320936E4,3.8E1,3.6E1,3.1414878E-2,1.87E2,5.99E0,3.367699E-2,-2.638552E-1,-1.4083172E-2,2.969122E-1,-2.1002212E-1,2.399653E-1,3.8859907E-1,7.8240365E-2,6.8534915E-3,-1.3307391E-1,7.1454E-2,-6.212725E-2,7.5784016E-1,-1.998508E-1,1.3888429E-1,-3.7284616E-2,3.7776864E-1,-1.9691072E-1,-3.0094024E-2,-1.13427214E-1,2.9785895E-1,-1.2076581E-1,-1.3716775E-2,-2.6718792E-1,-1.14002876E-1,1.7800522E-1,-3.3414565E-2,3.7622014E-1],"split_indices":[11,7,2,2,5,6,7,1,0,0,0,12,10,12,6,7,0,2,0,0,0,7,12,12,0,2,2,5,0,9,0,6,1,0,0,7,7,10,12,7,0,2,7,1,0,6,3,0,0,0,0,0,0,0,0,0,0,0,0,0,0,0,0,0,0,0,0,0,0,0,0,0,0,0,0],"split_type":[0,0,0,0,0,0,0,0,0,0,0,0,0,0,0,0,0,0,0,0,0,0,0,0,0,0,0,0,0,0,0,0,0,0,0,0,0,0,0,0,0,0,0,0,0,0,0,0,0,0,0,0,0,0,0,0,0,0,0,0,0,0,0,0,0,0,0,0,0,0,0,0,0,0,0],"sum_hessian":[1.968072E3,8.642303E1,1.881649E3,7.847392E1,7.9491086E0,1.1546466E3,7.270024E2,7.739122E1,1.0826976E0,4.57883E0,3.3702788E0,1.1464993E3,8.147412E0,6.59343E2,6.7659325E1,4.81166E1,2.9274626E1,3.5654218E0,1.0134081E0,1.7690551E0,1.6012237E0,8.180857E2,3.2841354E2,6.426987E0,1.720425E0,6.278648E2,3.1478254E1,6.3714405E1,3.944916E0,8.011269E0,4.010533E1,1.3282249E1,1.5992375E1,1.093809E0,2.471613E0,3.007346E2,5.173511E2,8.709504E1,2.413185E2,3.203357E0,3.22363E0,5.8922546E2,3.863929E1,2.9825418E1,1.6528361E0,5.439845E1,9.315957E0,5.4870076E0,2.524261E0,8.679051E0,3.142628E1,1.1467506E1,1.8147433E0,4.2123137E0,1.1780062E1,2.0423618E2,9.6498405E1,3.7707135E2,1.4027975E2,1.9991561E0,8.509589E1,4.9309097E1,1.920094E2,2.0614212E0,1.1419358E0,3.4945428E2,2.397712E2,1.7635483E1,2.1003807E1,1.0650718E0,2.8760345E1,1.7999231E1,3.6399216E1,1.0019487E0,8.314009E0],"tree_param":{"num_deleted":"0","num_feature":"13","num_nodes":"75","size_leaf_vector":"1"}},{"base_weights":[-4.4467926E-2,1.3292027E-2,-1.3211086E-1,-9.611044E-2,3.0144933E-1,-7.938084E-2,-3.912651E-1,-3.1789605E-2,-3.6882475E-1,9.1505635E-1,2.0018442E-1,-1.1277867E-1,5.6142694E-1,-5.4193324E-1,8.4675916E-2,-1.4317931E-1,1.9589151E-1,3.3440393E-1,-4.2358637E-1,1.3082613E0,-1.13364585E-1,-5.43769E-3,6.1693984E-1,-2.633354E-1,1.6573756E-3,9.5223457E-1,-1.311703E-1,-6.585203E-1,-2.4560122E-1,3.7988603E-1,-6.867826E-1,-2.242592E-1,2.4117798E-1,6.3419044E-3,5.944246E-1,-2.6429254E-1,6.130282E-1,-4.6058163E-1,5.02739E-1,-2.4221437E-1,1.4189212E0,-3.3356655E-1,8.108236E-1,-5.6182545E-2,1.167467E0,4.665901E-1,1.4688884E0,-1.0884411E-1,-5.088874E-1,3.6274707E-1,-1.1956117E-1,1.6387786E-1,1.9213011E0,5.6470823E-1,-6.482285E-1,-1.7708965E-1,-7.959745E-1,-6.6081256E-1,2.5806254E-1,-3.9089892E-2,8.8846314E-1,1.0386793E-2,-7.8206176E-1,-7.9441175E-2,1.9447981E-1,7.747821E-1,-9.917209E-2,1.3534419E-1,-5.3728707E-2,-1.9829139E-1,2.4377643E-1,1.7504964E-2,2.75665E-1,-3.061733E-2,-1.7584941E-1,-1.734581E-1,2.71229E-1,-5.992016E-2,4.5808384E-1,2.1757174E-2,4.8693487E-1,-1.2701203E-1,2.9700596E-2,-1.7085269E-1,5.9490216E-1,7.0652954E-2,3.5015354E-1,6.2058496E-1,2.7529463E-2,-8.238802E-2,1.1443978E-1,-1.6363973E-2,-2.0719674E-1,2.4017566E-1,-1.6941938E-1,-8.378049E-3,-1.6777629E-1,2.3385413E-1,-2.0721E-1,7.053386E-2,7.710891E-1,3.0940604E-1,-1.7451207E-1,-2.5594142E-1,-4.560798E-2,-1.551181E-1,2.3012827E-1,-1.4522463E-1,-2.8651768E-1,-6.464398E-2,-2.9169944E-1,-2.6925996E-1,2.1805209E-1,-9.367552E-2,1.685198E-1,5.890449E-1,9.559361E-2,-3.518751E-2,-2.6847848E-1],"categories":[],"categories_nodes":[],"categories_segments":[],"categories_sizes":[],"default_left":[0,0,1,0,0,1,0,0,0,0,0,0,0,0,0,0,0,0,0,0,0,1,0,0,0,0,0,0,0,0,0,0,0,0,0,0,0,1,1,0,0,0,0,0,0,0,0,0,0,0,0,0,0,0,0,0,0,0,0,0,0,0,0,0,0,0,0,0,0,0,0,0,0,0,0,0,0,0,0,0,0,0,0,0,0,0,0,0,0,0,0,0,0,0,0,0,0,0,0,0,0,0,0,0,0,0,0,0,0,0,0,0,0,0,0,0,0,0,0],"id":13,"left_children":[1,3,5,7,9,11,13,15,17,19,21,23,25,27,29,31,33,35,37,39,41,43,45,47,49,51,53,55,57,59,61,63,65,67,69,-1,71,73,75,-1,77,-1,79,81,83,85,87,89,91,93,95,97,99,101,103,105,107,109,111,113,115,-1,117,-1,-1,-1,-1,-1,-1,-1,-1,-1,-1,-1,-1,-1,-1,-1,-1,-1,-1,-1,-1,-1,-1,-1,-1,-1,-1,-1,-1,-1,-1,-1,-1,-1,-1,-1,-1,-1,-1,-1,-1,-1,-1,-1,-1,-1,-1,-1,-1,-1,-1,-1,-1,-1,-1,-1,-1],"loss_changes":[9.72879E0,3.6569756E1,1.040073E1,1.4738537E1,1.9651457E1,1.3665586E1,9.282745E0,1.7311993E1,6.3180275E0,1.8320091E1,2.3592499E1,1.0422702E1,8.692056E0,3.2230816E0,7.511586E0,1.4333275E1,1.694082E1,4.653081E0,5.345896E0,8.775005E0,1.3220695E1,1.1095515E1,1.0964867E1,9.854887E0,1.5130385E1,1.5235842E1,4.7903767E0,4.472437E0,6.289011E0,5.0783396E0,6.5719604E-1,1.3575712E1,1.0835398E2,1.270244E1,2.033532E1,0E0,1.7227027E0,6.425003E0,3.2166543E0,0E0,5.783325E0,0E0,4.386777E0,1.021822E1,1.2080971E1,1.2478237E1,1.0693827E1,1.3242368E1,8.271587E0,3.5731598E1,1.0411911E1,7.0186644E0,9.2859955E0,3.6900125E0,6.3491845E-1,5.7796993E0,2.2143097E0,2.054222E0,8.203693E0,2.4626079E0,5.9495125E0,0E0,5.0579786E-1,0E0,0E0,0E0,0E0,0E0,0E0,0E0,0E0,0E0,0E0,0E0,0E0,0E0,0E0,0E0,0E0,0E0,0E0,0E0,0E0,0E0,0E0,0E0,0E0,0E0,0E0,0E0,0E0,0E0,0E0,0E0,0E0,0E0,0E0,0E0,0E0,0E0,0E0,0E0,0E0,0E0,0E0,0E0,0E0,0E0,0E0,0E0,0E0,0E0,0E0,0E0,0E0,0E0,0E0,0E0,0E0],"parents":[2147483647,0,0,1,1,2,2,3,3,4,4,5,5,6,6,7,7,8,8,9,9,10,10,11,11,12,12,13,13,14,14,15,15,16,16,17,17,18,18,19,19,20,20,21,21,22,22,23,23,24,24,25,25,26,26,27,27,28,28,29,29,30,30,31,31,32,32,33,33,34,34,36,36,37,37,38,38,40,40,42,42,43,43,44,44,45,45,46,46,47,47,48,48,49,49,50,50,51,51,52,52,53,53,54,54,55,55,56,56,57,57,58,58,59,59,60,60,62,62],"right_children":[2,4,6,8,10,12,14,16,18,20,22,24,26,28,30,32,34,36,38,40,42,44,46,48,50,52,54,56,58,60,62,64,66,68,70,-1,72,74,76,-1,78,-1,80,82,84,86,88,90,92,94,96,98,100,102,104,106,108,110,112,114,116,-1,118,-1,-1,-1,-1,-1,-1,-1,-1,-1,-1,-1,-1,-1,-1,-1,-1,-1,-1,-1,-1,-1,-1,-1,-1,-1,-1,-1,-1,-1,-1,-1,-1,-1,-1,-1,-1,-1,-1,-1,-1,-1,-1,-1,-1,-1,-1,-1,-1,-1,-1,-1,-1,-1,-1,-1,-1],"split_conditions":[5.74E2,4.27E2,4.35121E5,3.96E2,4.82E2,3.9394E5,2E0,2E0,1.182E3,3E0,5.53E2,9.5E1,3.38366E4,1.31E2,1.75E2,8.1E1,7.8E1,1.3E1,9.5E1,1.05E2,1.44E2,8.36621E5,8.7E1,6.7E1,1.75E2,7.23E2,6.61E2,2.6E1,4.2E1,1.32E2,9.5E1,3.39E2,8.2E1,1.03E2,8.9E1,-2.6429254E-1,1.11E2,9.9557E4,1.41228E5,-2.4221437E-1,1.341E3,-3.3356655E-1,1.77763E4,1E0,2.489994E4,2.75E2,1E0,3E0,7.4879E3,7.6E1,2E0,2E0,6.20322E3,6.844854E4,1.28E2,1.9E1,1.249549E4,2.4E1,6.31E2,5.5E1,7.12E2,1.0386793E-2,9.41E3,-7.9441175E-2,1.9447981E-1,7.747821E-1,-9.917209E-2,1.3534419E-1,-5.3728707E-2,-1.9829139E-1,2.4377643E-1,1.7504964E-2,2.75665E-1,-3.061733E-2,-1.7584941E-1,-1.734581E-1,2.71229E-1,-5.992016E-2,4.5808384E-1,2.1757174E-2,4.8693487E-1,-1.2701203E-1,2.9700596E-2,-1.7085269E-1,5.9490216E-1,7.0652954E-2,3.5015354E-1,6.2058496E-1,2.7529463E-2,-8.238802E-2,1.1443978E-1,-1.6363973E-2,-2.0719674E-1,2.4017566E-1,-1.6941938E-1,-8.378049E-3,-1.6777629E-1,2.3385413E-1,-2.0721E-1,7.053386E-2,7.710891E-1,3.0940604E-1,-1.7451207E-1,-2.5594142E-1,-4.560798E-2,-1.551181E-1,2.3012827E-1,-1.4522463E-1,-2.8651768E-1,-6.464398E-2,-2.9169944E-1,-2.6925996E-1,2.1805209E-1,-9.367552E-2,1.685198E-1,5.890449E-1,9.559361E-2,-3.518751E-2,-2.6847848E-1],"split_indices":[0,1,4,0,0,4,11,11,2,6,0,6,2,5,6,7,12,7,7,5,6,4,12,6,6,1,1,12,7,5,5,1,7,5,5,0,5,4,4,0,2,0,2,9,2,6,11,6,2,12,11,9,2,2,5,12,2,12,1,7,1,0,2,0,0,0,0,0,0,0,0,0,0,0,0,0,0,0,0,0,0,0,0,0,0,0,0,0,0,0,0,0,0,0,0,0,0,0,0,0,0,0,0,0,0,0,0,0,0,0,0,0,0,0,0,0,0,0,0],"split_type":[0,0,0,0,0,0,0,0,0,0,0,0,0,0,0,0,0,0,0,0,0,0,0,0,0,0,0,0,0,0,0,0,0,0,0,0,0,0,0,0,0,0,0,0,0,0,0,0,0,0,0,0,0,0,0,0,0,0,0,0,0,0,0,0,0,0,0,0,0,0,0,0,0,0,0,0,0,0,0,0,0,0,0,0,0,0,0,0,0,0,0,0,0,0,0,0,0,0,0,0,0,0,0,0,0,0,0,0,0,0,0,0,0,0,0,0,0,0,0],"sum_hessian":[1.9204836E3,1.1581006E3,7.6238306E2,8.3989185E2,3.182088E2,6.34573E2,1.27810036E2,6.8050775E2,1.5938408E2,4.393737E1,2.7427142E2,6.0392163E2,3.0651379E1,9.69728E1,3.0837234E1,4.5720023E2,2.233075E2,1.1145904E1,1.4823817E2,3.1587967E1,1.2349403E1,1.8431807E2,8.995336E1,2.6023917E2,3.4368243E2,1.9355112E1,1.1296267E1,6.871554E1,2.8257257E1,2.2669851E1,8.167382E0,3.7789923E2,7.930102E1,1.5201994E2,7.128755E1,1.6754775E0,9.470426E0,1.4302873E2,5.2094493E0,1.257153E0,3.0330814E1,5.8383536E0,6.5110497E0,1.77587E2,6.731071E0,7.777542E1,1.21779375E1,1.6062424E2,9.961494E1,8.5876945E1,2.578055E2,1.1317328E1,8.037784E0,4.7761583E0,6.5201087E0,1.5769947E1,5.2945595E1,1.531765E1,1.2939608E1,1.2936031E1,9.73382E0,1.0271262E0,7.1402564E0,3.6178424E2,1.6114973E1,1.4873651E1,6.442737E1,4.4307518E1,1.07712425E2,1.0253764E1,6.1033787E1,3.7892566E0,5.6811695E0,3.757356E1,1.0545517E2,1.2912558E0,3.9181933E0,1.8444487E0,2.8486366E1,3.9815068E0,2.529543E0,5.2243206E1,1.25343796E2,2.2469945E0,4.4840765E0,5.9489662E1,1.828576E1,8.133656E0,4.0442815E0,1.20366165E2,4.025807E1,2.8836489E1,7.077845E1,5.843032E1,2.744662E1,2.1422368E2,4.358182E1,6.629378E0,4.6879506E0,2.6124682E0,5.425315E0,3.4657855E0,1.3103727E0,4.105417E0,2.414692E0,1.1927578E1,3.842369E0,1.9249323E1,3.369627E1,7.001024E0,8.316626E0,3.4702883E0,9.469319E0,9.223083E0,3.7129486E0,2.5247715E0,7.2090487E0,1.3323113E0,5.8079453E0],"tree_param":{"num_deleted":"0","num_feature":"13","num_nodes":"119","size_leaf_vector":"1"}},{"base_weights":[-3.843578E-2,2.4462406E-1,-5.1763795E-2,-3.5755268E-1,3.1569454E-1,-1.5838999E-1,-1.7603211E-2,-5.148995E-1,5.616533E-2,9.949559E-1,2.0916256E-1,2.1136174E-2,-4.3841758E-1,3.3554807E-1,-6.0199633E-2,1.7666042E-2,-7.289954E-1,3.3830777E-1,3.4346718E-1,2.9801667E-1,-4.5571166E-1,-1.7513843E-1,8.346089E-1,-5.753045E-1,2.6383394E-1,-2.961734E-1,6.5010744E-1,2.3376087E-3,-3.186241E-1,-3.2323457E-2,-2.862058E-1,2.4495377E-1,-1.01712294E-1,2.6924316E-2,4.761116E-1,-4.0629427E-3,-2.8162408E-1,-5.614161E-1,1.3766249E-1,1.1064012E0,-3.436301E-1,6.62341E-1,-6.434058E-1,3.4637123E-2,5.500892E-1,4.8626846E-1,-8.957045E-1,-3.6060753E-1,9.833911E-1,-6.64335E-2,4.1878214E-1,-4.1071442E-1,4.7737008E-1,-2.097646E-1,4.3118306E-2,1.8168962E-1,-9.894118E-2,-1.4363417E-1,1.7082295E-1,-1.1646922E-2,-1.9632073E-1,8.62158E-2,-2.4921417E-1,-1.9515392E-1,4.4069898E-1,2.047882E-1,-2.7203053E-1,5.283361E-1,-1.8116288E-1,-7.229999E-2,-2.1324794E-1,-8.1773914E-2,2.045877E-1,-1.00825645E-1,5.83513E-1,5.262339E-2,-2.8662467E-1,7.174106E-2,-1.8286674E-1,1.5290402E-1,6.08209E-1,-6.0074184E-2,4.4678662E-2,5.610049E-1,6.696861E-2,5.04466E-2,-1.4627756E-1,-1.7962953E-1,2.294936E-1],"categories":[],"categories_nodes":[],"categories_segments":[],"categories_sizes":[],"default_left":[0,0,0,0,0,0,0,0,0,0,0,0,0,0,0,0,0,0,0,1,0,0,0,0,1,0,0,0,0,0,0,0,0,0,0,0,0,0,0,1,1,0,0,0,0,1,0,0,0,0,0,1,0,0,0,0,0,0,0,0,0,0,0,0,0,0,0,0,0,0,0,0,0,0,0,0,0,0,0,0,0,0,0,0,0,0,0,0,0],"id":14,"left_children":[1,3,5,7,9,11,13,15,-1,17,19,21,23,25,27,-1,29,31,-1,33,35,37,39,41,43,45,47,49,51,-1,-1,-1,-1,53,55,57,-1,59,61,63,65,67,69,71,-1,73,75,77,79,81,83,85,87,-1,-1,-1,-1,-1,-1,-1,-1,-1,-1,-1,-1,-1,-1,-1,-1,-1,-1,-1,-1,-1,-1,-1,-1,-1,-1,-1,-1,-1,-1,-1,-1,-1,-1,-1,-1],"loss_changes":[7.0782022E0,3.7246418E0,6.515129E0,9.002392E-1,5.2925878E0,2.1830866E1,2.0424232E1,9.6952724E-1,0E0,6.0109615E-1,4.0925274E0,4.252933E1,1.645683E1,2.9233934E1,1.957571E1,0E0,6.7558074E-1,1.3410885E0,0E0,2.8687782E0,1.8049493E0,2.6016655E1,1.6959469E1,1.2416691E1,1.0138304E1,2.3547367E1,3.332533E1,2.798633E1,1.7496273E1,0E0,0E0,0E0,0E0,2.1974738E0,3.953435E0,1.7124885E0,0E0,4.65201E0,1.755403E1,2.79059E1,6.668186E0,1.2071968E1,3.5007744E0,5.3090324E0,0E0,2.70719E1,1.9741688E0,3.8789117E0,3.5500786E1,2.4200624E1,3.888817E1,9.519672E0,8.1757145E0,0E0,0E0,0E0,0E0,0E0,0E0,0E0,0E0,0E0,0E0,0E0,0E0,0E0,0E0,0E0,0E0,0E0,0E0,0E0,0E0,0E0,0E0,0E0,0E0,0E0,0E0,0E0,0E0,0E0,0E0,0E0,0E0,0E0,0E0,0E0,0E0],"parents":[2147483647,0,0,1,1,2,2,3,3,4,4,5,5,6,6,7,7,9,9,10,10,11,11,12,12,13,13,14,14,16,16,17,17,19,19,20,20,21,21,22,22,23,23,24,24,25,25,26,26,27,27,28,28,33,33,34,34,35,35,37,37,38,38,39,39,40,40,41,41,42,42,43,43,45,45,46,46,47,47,48,48,49,49,50,50,51,51,52,52],"right_children":[2,4,6,8,10,12,14,16,-1,18,20,22,24,26,28,-1,30,32,-1,34,36,38,40,42,44,46,48,50,52,-1,-1,-1,-1,54,56,58,-1,60,62,64,66,68,70,72,-1,74,76,78,80,82,84,86,88,-1,-1,-1,-1,-1,-1,-1,-1,-1,-1,-1,-1,-1,-1,-1,-1,-1,-1,-1,-1,-1,-1,-1,-1,-1,-1,-1,-1,-1,-1,-1,-1,-1,-1,-1,-1],"split_conditions":[0E0,9.9E1,2.1E1,3.25839E5,1.03E2,8.2E1,2.8E1,1.8E1,5.616533E-2,2.14E2,6.9E1,2.6E1,4.05E2,2.6E1,3.03E2,1.7666042E-2,6.20322E3,1.77E2,3.4346718E-1,1.14E2,5.36E2,2E0,1.8E1,3E1,6.41958E5,3.3E1,1E0,2.35E2,8.25E2,-3.2323457E-2,-2.862058E-1,2.4495377E-1,-1.01712294E-1,3E0,8E1,1.2E2,-2.8162408E-1,8.53135E3,1.3E1,8.9E1,1.09E2,1E0,1.5E2,8.99E0,5.500892E-1,1.05E2,8.4E1,1.14E2,4E0,1.25E2,2.39E2,8.2E1,6.7E1,-2.097646E-1,4.3118306E-2,1.8168962E-1,-9.894118E-2,-1.4363417E-1,1.7082295E-1,-1.1646922E-2,-1.9632073E-1,8.62158E-2,-2.4921417E-1,-1.9515392E-1,4.4069898E-1,2.047882E-1,-2.7203053E-1,5.283361E-1,-1.8116288E-1,-7.229999E-2,-2.1324794E-1,-8.1773914E-2,2.045877E-1,-1.00825645E-1,5.83513E-1,5.262339E-2,-2.8662467E-1,7.174106E-2,-1.8286674E-1,1.5290402E-1,6.08209E-1,-6.0074184E-2,4.4678662E-2,5.610049E-1,6.696861E-2,5.04466E-2,-1.4627756E-1,-1.7962953E-1,2.294936E-1],"split_indices":[11,5,7,4,5,6,7,7,0,0,7,6,6,12,6,0,2,0,0,5,0,11,12,1,4,6,11,6,1,0,0,0,0,6,12,5,0,2,7,5,5,10,1,3,0,5,5,5,10,5,6,5,12,0,0,0,0,0,0,0,0,0,0,0,0,0,0,0,0,0,0,0,0,0,0,0,0,0,0,0,0,0,0,0,0,0,0,0,0],"split_type":[0,0,0,0,0,0,0,0,0,0,0,0,0,0,0,0,0,0,0,0,0,0,0,0,0,0,0,0,0,0,0,0,0,0,0,0,0,0,0,0,0,0,0,0,0,0,0,0,0,0,0,0,0,0,0,0,0,0,0,0,0,0,0,0,0,0,0,0,0,0,0,0,0,0,0,0,0,0,0,0,0,0,0,0,0,0,0,0,0],"sum_hessian":[1.8718436E3,8.3392975E1,1.7884506E3,8.377749E0,7.501523E1,4.330683E2,1.3553823E3,6.542812E0,1.8349373E0,9.039395E0,6.597583E1,2.6445212E2,1.6861618E2,1.4514674E2,1.2102356E3,1.9749123E0,4.567899E0,2.2856438E0,6.7537513E0,5.868492E1,7.2909107E0,2.1368011E2,5.0772007E1,1.4126144E2,2.7354727E1,4.82686E1,9.6878136E1,9.752271E2,2.3500844E2,1.6078182E0,2.960081E0,1.2193414E0,1.0663024E0,2.372397E1,3.496095E1,4.2890058E0,3.0019047E0,9.525499E1,1.18425125E2,4.13049E1,9.467107E0,6.912401E0,1.3434904E2,2.4761509E1,2.593218E0,2.1021969E1,2.7246634E1,2.4003428E1,7.287471E1,8.3772656E2,1.375006E2,2.1107297E2,2.3935476E1,2.5964127E0,2.1127558E1,3.0334364E1,4.626585E0,2.4368856E0,1.8521202E0,1.460286E1,8.065212E1,1.03176E2,1.5249116E1,6.930399E0,3.43745E1,3.2791092E0,6.187998E0,3.4916322E0,3.4207687E0,1.993571E1,1.1441334E2,1.7184645E1,7.5768633E0,1.3935648E1,7.0863204E0,1.3363863E0,2.5910248E1,7.052521E0,1.6950907E1,5.115219E1,2.1722515E1,5.167303E2,3.2099628E2,1.5311173E1,1.2218942E2,2.4606237E1,1.8646672E2,4.819741E0,1.9115736E1],"tree_param":{"num_deleted":"0","num_feature":"13","num_nodes":"89","size_leaf_vector":"1"}},{"base_weights":[-3.405937E-2,-1.4188803E-2,-2.176829E-1,2.5046645E-2,-1.4878012E-1,-4.7395554E-1,1.05612405E-1,-1.6249063E-3,1.1204687E0,1.2402735E-1,-2.9910338E-1,-6.802324E-1,1.4324638E-1,2.4262574E-1,-5.207331E-1,-8.1215784E-2,1.0338491E-1,2.1072645E0,1.3174134E-1,5.356324E-1,-1.6349858E-1,-5.938974E-1,-1.2236108E-1,3.853261E-1,-7.458105E-1,1.3670028E0,-1.3119966E-1,6.5271765E-2,5.481754E-1,1.5927371E-1,-7.199819E-1,7.568567E-3,-3.2263443E-1,-4.9495858E-1,1.528129E-1,2.7215471E0,-3.058372E-1,-4.997159E-1,4.0221754E-1,-2.956985E-1,8.794855E-1,-4.1355437E-1,4.2959958E-1,-6.419183E-1,4.6254155E-1,1.4084711E-2,-5.169961E-1,2.5642508E-1,-7.176485E-2,-8.27631E-1,-3.4263325E-1,-6.470241E-2,6.2126E-1,-8.54422E-1,2.937064E-1,1.1475167E0,-5.8875225E-2,3.206477E-1,-2.0287216E-1,-8.615084E-1,-7.050552E-3,-2.8683865E-2,5.462512E-2,-7.441438E-2,-2.3729996E-1,4.449244E-2,-2.2443451E-1,4.871511E-1,3.755062E-2,-7.136544E-2,1.0308812E0,1.1334548E-1,-2.0360608E-1,3.8506992E-2,-2.1762808E-1,1.7583369E-1,-1.7243463E-1,9.4802715E-2,-1.854705E-1,1.8579522E-1,1.0189368E0,-1.5933295E-1,4.8986398E-2,5.911277E-1,-2.5103144E-2,2.3461162E-1,-2.1155079E-1,-7.979267E-2,8.578822E-2,1.0636302E-1,-2.0440583E-1,-2.7508634E-1,-1.8613051E-1,-2.505423E-1,2.0153812E-1,-9.887479E-3,-2.8876778E-1,-2.2286114E-1,1.6564989E-1,8.893121E-1,7.310854E-2,-1.6140021E-1,5.0899405E-2,-2.7512133E-1,-6.794528E-2],"categories":[],"categories_nodes":[],"categories_segments":[],"categories_sizes":[],"default_left":[0,1,1,1,0,0,0,0,0,0,0,0,0,0,0,0,0,0,0,0,0,0,0,0,0,0,1,0,0,0,0,0,0,0,0,0,0,0,0,0,0,0,0,0,0,0,0,0,0,0,0,0,0,0,0,0,0,0,0,0,0,0,0,0,